#include "ap_int.h"
#include <cstdint>
#include "ap_fixed.h"

#define n_inputs 4096
#define n_layer1 32
#define n_layer2 16
#define n_layer3 3

void float_to_fixed(float input[n_inputs], ap_fixed<32,24> output[n_inputs]);

void hwmm_layer1(ap_fixed<32,24> input[n_inputs], const ap_fixed<32,24> weights[n_inputs][n_layer1], ap_fixed<32,24> output[1][n_layer1]);
void hw_act_layer1(ap_fixed<32,24> input[1][n_layer1], ap_fixed<32,24> output[1][n_layer1]);
void hwmm_layer2(ap_fixed<32,24> input[1][n_layer1], const ap_fixed<32,24> weights[n_layer1][n_layer2], ap_fixed<32,24> output[1][n_layer2]);
void hw_act_layer2(ap_fixed<32,24> input[1][n_layer2], ap_fixed<32,24> output[1][n_layer2]);
void hwmm_layer3(ap_fixed<32,24> input[1][n_layer2], const ap_fixed<32,24> weights[n_layer2][n_layer3], ap_fixed<32,24> output[1][n_layer3]);
void hw_act_layer3(ap_fixed<32,24> input[1][n_layer3], ap_fixed<32,24> &pred);
int nn_inference(float input_img[n_inputs]);

namespace weights{

	const ap_fixed<32,24> layer3_weights[n_layer2][n_layer3] = {{0.64605993, 0.33093247, -0.28210968},
			{-0.14715125, -0.50411874, 0.24380578},
			{-0.5487666, -0.20489079, 0.20118684},
			{-0.4293747, 0.4865183, 0.55182076},
			{0.095138066, 0.25308937, 0.31279325},
			{-0.031658333, -0.0889595, 0.028507017},
			{-0.24134085, 0.75960755, -0.59126437},
			{-0.13916111, -0.32371897, -0.48305655},
			{0.30495238, 0.5354136, -0.4330523},
			{0.061216272, -0.013701985, 0.39030594},
			{-0.39848995, 0.03722969, 0.39168164},
			{-0.34792885, -0.11702747, -0.31869704},
			{0.22718108, 0.04938365, -0.5017291},
			{0.6707638, -0.11128401, 0.7772665},
			{-0.47656935, 0.07272163, -0.11143104},
			{0.30705693, -0.53739446, 0.22359927}};

	const ap_fixed<32,24> layer2_weights[n_layer1][n_layer2] = {{0.44207385, -0.04177084, -0.09063347, -0.060803737, -0.034780517, -0.210759, 0.23473328, 0.27564254, -0.2952789, 0.070706435, -0.12219766, -0.07032351, 0.23560199, -0.2640599, -0.014853659, 0.046447758},
			{0.30472696, 0.0032114042, -0.2835167, 0.08664456, 0.065161474, -0.04403791, 0.24503584, -0.30803013, 0.3040782, 0.30302596, 0.22403859, -0.10270792, 0.14055724, -0.2948584, -0.34892142, -0.11803916},
			{-0.19973542, -0.15618713, 0.09611142, -0.32589307, 0.33971742, 0.2227101, 0.053971052, -0.13455696, -0.2232693, 0.23508151, -0.11415744, 0.09377233, -0.28965548, 0.2166293, -0.03218702, -0.18341364},
			{0.12970315, 0.098523274, 0.08690063, -0.045710266, -0.2567456, 0.31946942, -0.27767903, 0.14980558, -0.21038513, -0.16378254, 0.024374379, 0.1241706, -0.11562823, -0.08266902, 0.17519458, -0.2586563},
			{-0.032479424, -0.025349751, 0.11417499, -0.2529137, -0.22084416, 0.24586572, 0.17788944, -0.20019649, 0.05531628, 0.33751094, -0.25925466, -0.25270832, 0.06374363, -0.22649707, 0.1997201, -0.24697159},
			{0.16532077, 0.13486719, -0.23824137, 0.003434956, 0.16642483, 0.15455285, 0.1987885, -0.031340986, -0.19855489, 0.33359554, 0.09770284, 0.3205377, 0.20175174, 0.042999387, 0.06167768, 0.043067575},
			{-0.311049, 0.16472095, -0.016957948, 0.31739572, 0.34998867, 0.19661932, -0.2800717, -0.19782817, 0.111770965, -0.07787652, 0.23624632, -0.25382555, 0.118975, -0.23943709, 0.30616507, -0.1177658},
			{0.15879515, 0.18312946, 0.14795956, -0.29474497, -0.10969712, 0.008199841, 0.31380066, 0.21116027, 0.3050377, -0.29529345, 0.24397126, -0.2086269, -0.14127505, -0.16865686, 0.20140353, -0.15632275},
			{0.0014432936, 0.34487253, -0.092255324, 0.1166935, -0.303533, 0.32687604, -0.086908996, 0.35758072, -0.26340473, -0.020159578, 0.07600789, 0.302696, -0.33579195, -0.14014097, 0.104291365, -0.10065627},
			{-0.17187393, -0.35155725, -0.14557987, -0.12399991, -0.17571923, 0.16167447, 0.3167877, -0.06464862, 0.13497213, 0.20100166, -0.113934495, -0.0008267872, 0.0031775853, -0.04230407, -0.3388096, -0.2537471},
			{-0.3414961, -0.22515371, 0.26921007, -0.17686369, -0.29177564, -0.086021766, 0.28840294, -0.29163516, 0.08384815, -0.2904257, -0.155695, 0.1072931, 0.28010824, 0.004833728, -0.04998069, -0.2934171},
			{-0.37542492, 0.27248192, -0.26215208, 0.3418502, 0.31604832, 0.013802271, 0.24281576, -0.18790707, -0.2933981, -0.13264684, 0.23553644, -0.13706489, -0.17726794, 0.31002647, -0.33561987, -0.23247717},
			{0.30036443, 0.32452616, -0.20687704, -0.41366443, -0.10147988, -0.189405, -0.46754882, 0.38025025, 0.09196, -0.0043074884, 0.07450278, 0.2708749, -0.24400125, 0.2908236, 0.33068764, 0.18083067},
			{0.3158748, -0.34015515, 0.030656934, -0.046103, 0.3454865, 0.006456405, 0.08192083, 0.30987552, -0.24352507, 0.3225731, -0.14633276, 0.0945524, -0.16336337, -0.10433689, 0.35298905, -0.26207796},
			{-0.20248042, -0.25918257, 0.0011289569, 0.18069962, -0.16811244, -0.23899423, 0.21685983, -0.054994002, 0.27162445, 0.23449303, 0.16579099, 0.104330935, -0.17055629, 0.09418884, -0.14844272, 0.12868267},
			{0.32832992, 0.054440565, -0.2397218, 0.064434856, -0.26522195, -0.06764687, 0.31292623, -0.18449241, 0.28774545, 0.21719733, -0.03446612, -0.21493554, 0.18856108, -0.17183608, 0.19182284, -0.09507948},
			{-0.3194091, 0.22060345, 0.16594863, -0.30912125, 0.28428307, 0.17745282, -0.21185711, 0.08647898, -0.21709067, 0.15967265, -0.10661727, 0.038118042, -0.089746684, -0.079223424, -0.19441134, -0.014449954},
			{-0.35155907, 0.3176801, -0.3504463, -0.1524588, -0.06563488, 0.29542926, -0.31600156, 0.3134053, -0.24554585, -0.312992, -0.2886978, 0.12216467, -0.016824782, 0.020178974, -0.19462985, 0.15128526},
			{-0.33952886, -0.30342278, 0.021888254, 0.17759368, 0.20157024, 0.32961652, -0.0003183782, -0.05607435, 0.18767966, 0.14390412, 0.20383084, -0.18302701, 0.052039772, 0.35348907, -0.16789813, 0.13903123},
			{0.23806438, -0.08986518, 0.07394338, -0.16740432, -0.032013386, 0.14044341, 0.010749565, 0.2611041, -0.119256064, 0.2279036, 0.13514109, 0.0073662824, -0.11458086, -0.3122585, 0.34076986, -0.10243851},
			{-0.248777, -0.23749453, 0.13873747, -0.09271142, 0.15195432, 0.14681652, 0.18584982, 0.29113224, -0.311943, -0.21330132, -0.09167817, 0.3088486, -0.004957229, -0.15458317, -0.23938096, 0.078676194},
			{-0.3324516, 0.055836156, 0.16057894, -0.026893139, 0.3107811, 0.2894373, -0.056099653, 0.10733251, -0.19225386, 0.11664291, -0.04993921, 0.2855688, -0.044597913, 0.23961416, -0.045831826, -0.24692473},
			{-0.12950642, 0.32974097, 0.28351793, 0.14248416, -0.08368376, -0.16715884, 0.096004784, -0.13501179, -0.10895699, 0.13301852, 0.11166322, 0.11691191, 0.12616421, -0.24847329, 0.17924505, 0.07156384},
			{0.3323948, -0.05191776, -0.056673437, -0.32888055, -0.16997108, 0.2023777, 0.031963587, 0.10903525, 0.16691491, -0.122580394, -0.2510885, -0.072289765, 0.18552205, -0.30450523, -0.32227552, -0.30944678},
			{0.2836636, 0.15245743, 0.010681814, -0.04368335, 0.25387016, 0.3053408, -0.030248195, -0.14970954, -0.34655485, -0.22533111, 0.24220891, 0.14147422, 0.27483574, -0.29720312, -0.09426438, -0.12457833},
			{0.11402992, -0.14723225, 0.024733871, 0.17930034, -0.035274234, 0.20848104, -0.15328075, 0.21230419, -0.11113997, 0.20841299, 0.0734701, 0.07057381, -0.2686134, 0.11708595, -0.3371701, -0.33938944},
			{0.18325497, 0.2427765, 0.3246143, 0.29067275, 0.16828123, 0.3291397, 0.22721955, -0.01262624, -0.019936841, 0.041057233, -0.1180751, -0.121424064, -0.29632476, -0.17737316, 0.10810358, -0.3262337},
			{-0.143524, 0.09965223, -0.0025506953, 0.27068064, -0.18584897, -0.102307945, -0.2818776, -0.15246539, 0.2520868, -0.030063458, -0.11060289, -0.31222302, 0.08054311, 0.098284245, 0.16345432, 0.1510779},
			{0.09167596, 0.1113524, 0.22423479, -0.06974824, 0.0074741985, -0.16522458, -0.42164207, 0.19826351, 0.061189316, 0.030238032, 0.15833901, -0.06312021, 0.17515154, 0.22906283, -0.04392617, 0.4524521},
			{0.103718534, -0.25932845, -0.3340675, 0.07326573, 0.014166832, 0.3397097, 0.18433043, -0.19257331, -0.256846, 0.15652977, 0.104922004, -0.26229545, -0.22830988, 0.31383333, -0.22777258, 0.056960523},
			{0.11700025, -0.09927875, -0.17195366, -0.21756531, 0.19958326, -0.1486414, 0.22539821, 0.20356736, -0.07778472, -0.033627212, -0.15885644, -0.21616031, -0.12240793, 0.074664414, -0.26470807, 0.05403748},
			{-0.04871237, -0.008452077, -0.20742507, -0.20835362, -0.2063471, 0.26914993, -0.3034357, 0.19634297, -0.29365262, 0.21909568, -0.12857407, 0.08032238, -0.17699958, -0.1411589, -0.15396935, 0.00014582276}}
;

	const ap_fixed<32,24> layer1_weights[n_inputs][n_layer1] = {{0.20108557, 0.02139053, 0.023275983, -0.009761251, 0.03036033, 0.019653525, 0.01579394, 0.0066913553, -0.037627164, -0.014045158, -0.022531042, -0.20283152, -0.14347112, -0.030071337, -0.03926187, -0.020085834, -0.032473814, 0.0002691336, -0.011106283, -0.032889985, -0.017931718, -0.038903736, -0.04280331, 0.01868052, 0.0054416787, -0.013638223, 0.02492647, -0.04161095, -0.0838258, -0.030051744, 0.033195116, -0.02704116},
			{0.17971902, -0.011775772, 0.02789269, 0.0057810443, -0.04195569, 0.003899435, -0.021182263, 0.028386913, -0.027151814, -0.0028056693, 0.008300733, -0.18737337, -0.14028634, -0.02337185, -0.01795304, -0.006871733, 0.020303378, -0.013675628, -0.030553978, -0.013713834, -0.0033405088, -0.01614662, -0.032646194, -0.017514922, -0.021185922, 0.002257292, 0.011595554, 0.006819473, -0.09736398, 0.027328894, -0.0006250739, -0.029513193},
			{0.18235967, -0.023076437, -0.017968826, 0.0031806475, 0.0074007176, 0.0061225267, -0.004542112, -0.025146406, -0.0005702045, -0.030917764, -0.011143954, -0.16501567, -0.18728784, -0.009734159, -0.018097365, -0.011692973, 0.013364001, -0.021274582, 0.031114284, 0.03360549, -0.03303388, 0.0036686775, 0.015319793, -0.012503732, 0.016814096, -0.029059084, 0.0094939945, 0.0034864096, -0.08308263, -0.018567456, -0.0014610663, 0.0057188426},
			{0.1706341, -0.032266885, -0.028517997, -0.043339346, -0.02618943, -0.0052663134, -0.005655084, 0.018238094, 0.020800922, 0.010402994, -0.034929063, -0.12494138, -0.15194394, -0.033471603, 0.005588487, 0.009701381, 0.021771358, 0.026333496, 0.02812879, -0.034405123, 0.011284277, -0.030046666, -0.03283377, -0.021554023, 0.009769821, 0.0011026585, 0.021309728, -0.016310915, -0.15760143, -0.030508159, 0.02780845, -0.030836869},
			{0.1674939, 0.015745677, -0.018427197, 0.02072438, 0.024656164, 0.0049666585, 0.0004867534, -0.0032196008, -0.013548761, 0.0018840428, -0.0068082493, -0.11517569, -0.17016712, -0.0370249, 0.020864971, 0.027320674, -0.02536463, -0.02204909, 0.029415997, -0.010228904, -0.033319794, -0.007221135, -0.042226106, -0.03101815, -0.032990348, -0.037005544, -0.038617454, 0.013160857, -0.08232248, -0.022647362, -0.020666296, 0.0071569374},
			{0.17801654, 0.025521128, -0.02041115, 0.013054034, -0.009832041, -0.007375101, -0.0127877435, -0.015499672, 0.00989084, -0.029823754, 0.029290698, -0.09224232, -0.12543194, -0.004738547, -0.030751713, -0.0037084462, 0.030596834, 0.00879433, 0.023056177, -0.0022592032, 0.023581538, -0.020083658, -0.010612108, -0.023105731, 0.00059748144, -0.006599765, 0.028590955, 0.0053445334, -0.07521931, -0.0053855595, -0.006177753, -0.039235473},
			{0.1580201, -0.022723071, 0.026869027, -0.023102012, 0.014238028, -0.026138056, -0.0203866, 0.004318025, -0.006779469, -0.032124106, 0.018225182, -0.08172904, -0.11588896, 0.008088473, -0.0073072794, -0.00930178, -0.014044836, -0.007783735, 0.0049645896, -0.0041901846, -0.020440526, 0.029895654, 0.023802739, -0.023456309, 0.024507822, -0.009208387, -6.06838e-07, -0.012813024, -0.081070326, -0.0080792615, 0.0141612515, -0.03717716},
			{0.14863025, 0.019966505, -0.032775033, -0.0362033, 0.008292483, 0.026553813, 0.01967823, -0.0038974024, -0.011610448, 0.021860931, 0.022223186, -0.13913788, -0.12486428, 0.027361438, -0.033667088, 0.0035243214, 0.010402566, 0.023499522, -0.020326769, 0.026345268, -0.022322997, 0.021814985, -0.025213186, 0.032026015, -0.01697436, 0.018255515, 0.026502175, 0.0042353105, -0.04906113, -0.020807786, 0.009425104, -0.02376469},
			{0.18408544, 0.030445896, -0.03457095, 0.02284521, 0.002722684, 0.0038090174, 0.026393345, 0.0019259565, -0.02443869, -0.002673622, 0.015057664, -0.13143188, -0.13695091, 0.030121729, -0.025788188, -0.00034025116, -0.028464817, 0.0016815998, 0.008932297, 0.03505768, -0.0013424084, -0.0026713891, -0.008190432, -0.0058088154, 0.010997209, 0.012307661, 0.03008722, -0.011469361, -0.019548625, 0.0010856132, -0.0072649624, -0.00848555},
			{0.15665601, -0.027900232, -0.033254772, -0.042957846, -0.0068188207, -0.018867185, -0.03587013, -0.010957286, -0.03132087, -0.0053427997, 0.029224608, -0.14910944, -0.09235783, 0.030205637, -0.013185613, 0.0275422, 0.017608155, -0.037431233, -0.042341344, 0.021752167, -0.011738194, -0.029848093, -0.032500446, 0.0037426539, 0.010360408, -0.018886974, -0.0022414618, 0.021068385, -0.022363191, -0.011186169, 0.002990976, 0.012810329},
			{0.15182787, -0.03500475, -0.042406242, 0.0077797016, -0.021931015, 0.020255236, 0.016257728, -0.014063975, -0.017641144, 0.008577166, -0.009517996, -0.1532871, -0.10249724, 0.015871637, -0.043310884, 0.018462326, 0.012600435, 0.00781852, -0.008568891, 0.0075938175, 0.0022678077, 0.010575112, -0.014146795, -0.032116856, -0.020147763, -0.0069697318, -0.003047362, -0.0037764055, -0.051469073, 0.022313753, -0.0009559095, -0.010120965},
			{0.15619725, -0.032865066, -0.015485011, -0.012803413, -0.0326734, -0.025503386, 0.021341747, 0.01842561, 0.009622844, -0.024681592, -0.0393723, -0.09306065, -0.120230794, -0.0018948428, -0.016413638, 0.018212928, -0.009230728, 0.03370732, -0.036308825, 0.032563753, -0.005101271, -0.02364674, -0.038375314, 0.034081712, -0.0030124367, 0.024171978, 0.023744559, -0.039243802, -0.046498217, -0.022347141, -0.015080448, -0.038150314},
			{0.12651306, 0.02759908, -0.03746911, 0.020526135, 0.023690386, 0.020799568, -0.030552236, -0.02565578, -0.033868786, -0.018339157, -0.03777039, -0.06711821, -0.06960876, -0.004596878, -0.04332678, -0.031170398, 0.027416741, 0.016442493, -0.030142153, -0.018625503, -0.008492636, -0.04311825, -0.031152168, -0.003726229, -0.040168885, -0.039906234, 0.025109924, 0.016374739, -0.0314927, 0.021232706, 0.03524731, -0.0038385806},
			{0.114888996, 0.033766918, 0.008668473, 0.010233996, 0.021603791, -0.020766426, 0.02765648, 0.017604083, 0.011072206, 0.038361788, -0.02145467, -0.10477761, -0.1028995, -0.03562468, 0.029069649, -0.028236596, -0.006308196, 0.037634574, 0.008084026, -0.037296742, -0.025162742, 0.030458974, -0.038359545, 0.029232226, -0.0152666755, -0.03969417, 0.013345332, 0.018274354, -0.037656937, -0.011387732, -0.012785954, -0.023309397},
			{0.037320867, -0.03718514, -0.024131687, -0.0009137465, -0.0057670055, 0.004744056, -0.043357644, -0.004204452, 0.020310173, 0.008584873, 0.018284228, -0.08426771, -0.074524835, -0.019966276, 0.025118394, 0.014181933, -0.035323262, -0.015996164, -0.022227226, 0.017017052, -0.009875603, 0.0013944342, -0.010196324, 0.0309553, -0.038751945, 0.027036142, -0.04147314, -0.017992787, -0.043111805, 0.027781643, -0.018130144, -0.04389195},
			{0.045093946, -0.036917496, 0.008809512, 0.012067629, -0.020446625, -0.038573444, 0.006170864, 0.013999902, -0.0085801575, 0.02649794, -0.035407312, 0.036018007, -0.07867349, 0.020789906, -0.030588698, -0.023625396, 0.013355861, 0.024511695, -0.023730518, 0.009233839, -0.013570761, -0.029643554, -0.031686105, 0.03547223, -0.005364031, 0.004260114, 0.018401863, 0.0005134363, -0.06402316, 0.019434845, -0.037509013, -0.031778056},
			{0.04347294, -0.009929447, 0.023359548, -0.009008829, -0.0297255, 0.02356335, -0.043610375, -0.007098304, -0.010008534, 0.026419222, -0.034305055, 0.033758495, -0.03447519, -0.028069537, 0.011041125, 0.030599643, -0.03551261, -0.002495356, 0.004308814, -0.027427819, 0.0030035824, 0.016446572, 0.03143576, -0.026959442, -0.018192412, 0.0005646183, -0.0352122, -0.025464952, -0.029030157, -0.015149604, -0.027814, -0.02902447},
			{0.038234793, -0.026147533, -0.041982897, -0.004626448, -0.027937558, -0.013509389, 0.015227139, -0.00932489, -0.0019967423, 0.022188734, -0.03927997, 0.002020442, -0.07664666, -0.01663612, 0.0285041, 0.028346974, 0.02706177, -0.01546094, -0.020143976, -0.010822489, -0.008656731, -0.033696752, -0.034008343, -0.021775264, -0.026165051, -0.0075706104, -0.013117116, -0.034609407, -0.048382472, -0.038818676, 0.015400741, -0.02915464},
			{0.015245255, -0.005382902, 0.030531906, -0.04299215, -0.030095348, -0.03139388, 0.008482828, -0.015340967, -0.009032883, -0.036407344, 0.014587834, 0.002341551, -0.097151905, 0.019672334, -0.04328604, -0.014411664, -0.024014467, 0.024507307, 0.007861729, -0.006740781, -0.011245137, -0.028221916, 0.02179082, -0.0044149756, 0.011063887, 0.020846808, 0.017131597, -0.0011801162, -0.055710863, -0.03780004, 0.02603785, -0.025724135},
			{0.033740845, -0.030727271, 0.031826664, 0.01883031, -0.011064379, 0.025972718, 0.012540096, -0.004239101, 0.0043088957, -0.021921925, 0.027890168, -0.0159645, -0.049291987, -0.009875849, -0.0070543922, 0.004275975, -0.040963978, 0.012635093, -0.025665523, -0.030631201, -0.021080326, -0.02147915, -0.0076390924, -0.023011189, 0.018266214, -0.028253764, -0.0047803605, -0.02980334, -0.008236831, 0.01782281, 0.036061943, -0.004234451},
			{-0.0023699875, 0.018491406, 0.016103698, 0.0145736635, 0.01769554, -0.013582784, -0.004421314, 0.02523259, 0.022430502, -0.009682645, 0.01301173, 0.08722201, -0.025368309, 0.01564785, 0.013916443, 0.03564821, 0.029138407, -0.029369837, 0.005630539, -0.006917671, 0.019444712, 0.007812461, 0.015422995, -0.010528075, -0.036735263, -0.040026363, -0.02418107, 0.01535727, -0.050040558, 0.026859691, -0.020552447, -0.021508604},
			{0.015570488, -0.00011374697, -0.0124923065, -0.0015879633, 0.009779347, -0.01402123, -0.015930975, 0.031773448, -0.042521354, 0.0041551706, -0.007365418, 0.052884627, -0.019115571, 0.033218183, 0.015585506, -0.031997453, -0.024746673, 0.037818745, 0.009331707, 0.021491988, 0.02797594, -0.012433019, 0.011471715, -0.03375975, 0.011375352, -0.002829289, 0.014213163, -0.037234664, -0.05146747, -0.039281547, -0.006576415, -0.033022337},
			{0.03665415, -0.023015928, -0.015338313, 0.024185453, 0.026372265, 0.0036945622, 0.012415503, -0.03722479, -0.008965854, -0.010265175, -0.020953164, 0.03305113, -0.059221953, 0.0006669052, -0.02282203, -0.014418585, 0.024123995, -0.013339603, -0.008968927, -0.014802347, -0.019388938, -0.033494923, -0.0066830385, 0.011219222, 0.022226172, -0.026822744, -0.043613084, -0.033689123, 0.007904761, -0.028087877, -0.0140959695, -0.01644804},
			{0.03515687, -0.017114885, -0.034887455, -0.013997849, -0.0075003137, 0.012708024, 0.02102083, 0.025484897, 0.025338244, 0.026273271, 0.028124573, 0.0035035969, -0.052289024, -0.007862451, -0.015325176, 0.012132381, -0.037335455, -0.03158994, -0.003640846, -0.03740663, -0.008705977, -0.0004758789, -0.04169832, -0.02232527, 0.03005319, -0.019462058, 0.02713008, 0.014117823, 0.025060046, -0.019163623, -0.02647351, -0.00042650307},
			{-0.026587956, -0.010656104, -0.030241003, -0.020457922, 0.00059302105, -0.03554956, 0.017911788, 0.012928199, -0.018538646, 0.004757455, -0.025990201, 0.016060397, -0.020707266, -0.015266223, -0.010489575, -0.015412183, -0.014418538, 0.018345568, -0.007532084, 0.0067262524, -0.027986605, 0.018371047, 0.030910613, 0.0038107894, -0.00058975193, 0.022877999, 0.025820894, -0.0026158143, 0.027395032, 0.0012072866, -0.0005474873, -0.0035110323},
			{-0.009285871, 0.0071148598, 0.010392127, -0.012932913, -0.0013111578, -0.023120591, -0.017783867, 0.008396268, 0.010375549, 0.03197821, 0.00047703524, -0.057773355, -0.05714362, -0.033119313, 0.020600908, 0.02307072, -0.0065621766, 0.0018944591, -0.0031691608, 0.011052301, 0.020488676, 0.021101343, -0.014721875, -0.0026127957, -0.033369076, 0.014412685, -0.00574348, 0.0133617725, 0.029022528, 0.011272216, 0.014932379, -0.022684574},
			{-0.0047999523, -0.0012509165, 0.013730017, 0.013188677, -0.0046264627, 0.0029729134, 0.001124298, -0.030438159, 0.010545434, -0.0344997, -0.018589845, -0.02084604, -0.009615403, -0.029524643, 0.0017280877, 0.0013678157, -0.029669331, 0.0076089688, -0.030966682, -0.029053928, -0.01914122, -0.037380494, 0.016692514, -0.002777271, 0.01127596, -0.03954779, 0.008060764, -0.005114484, 0.068043105, 0.0011856955, -0.031562563, -0.012690673},
			{0.02167819, 0.029378338, -0.0141102625, -0.04131523, 0.02355004, 0.004310227, -0.025012722, -0.0023463964, -0.033090457, -0.03572553, -0.015578189, 0.0023372245, -0.023171395, 0.030594155, 0.013407658, 0.02693644, -0.005216795, -0.00081425905, 0.0064627477, -0.03853452, -0.010689061, 0.0060707587, -0.029230064, -0.008356946, -0.023512648, 0.021461219, 0.015732272, 0.030410608, 0.025400696, 0.0014282425, -0.022817636, -0.03564369},
			{0.010510645, 0.016991295, 0.03229074, -0.019332249, -0.031033311, -0.0034900394, -0.03280475, -0.008254087, -0.014853004, 0.011857092, -0.0052241525, -0.03109335, -0.03288648, 0.00012395531, -0.016051248, 0.017750068, -0.0097590545, 0.014476508, -0.006998475, -0.011617796, -0.025205307, -0.012927992, -0.03144783, 0.03439571, -0.04279528, -0.0066263136, -0.013119612, -0.030587798, 0.016930316, -0.010505551, 0.028889865, -0.018593557},
			{0.05736762, -0.025980104, 0.012975525, -0.039379314, -0.013580072, 0.018193575, 0.02082757, 0.02336793, 0.017737597, -0.0019171711, 0.023762988, -0.051026653, 0.009146805, 0.022836987, -0.0021204513, 0.023593923, 0.03211762, 0.03264042, -0.011847744, 0.0008793098, 0.035152443, -0.013639729, -0.0013621314, 0.0055554695, -0.005339264, -0.026829904, -0.028309694, -0.017710155, 0.030381624, 0.003916859, 0.031557336, 0.029405115},
			{-0.008630161, -0.030466601, -0.018483752, 0.022066532, 0.027340913, -0.032847375, -0.015334763, -0.030668534, 0.011835037, -0.03551308, 0.01394652, -0.007971077, 0.037101515, -0.019159999, 0.024386019, -0.0085594645, -0.026968716, -0.036937393, 0.021116763, -0.014937748, -0.002476085, -0.016120648, -0.016279789, 0.03722717, -0.028367361, -0.0072028805, -0.034865916, 0.0006435625, 0.013112294, -0.015633702, -0.03400998, -0.019555397},
			{0.023346892, -0.027272813, -0.00244259, -0.035488848, -0.010795847, -0.026519574, -0.014625614, 0.02009293, -0.019249175, 0.017069794, -0.006795127, -0.056916058, 0.061128154, 0.0030214451, -0.009129444, -0.014303105, 0.005965074, -0.009418741, -0.03721786, 0.018711822, 0.034359045, 0.031148061, 0.0014315513, -0.031061197, 0.027390659, -0.021564085, 0.0056693675, -0.010342515, 0.051409043, 0.01702415, -0.027686048, 0.029817345},
			{0.0045407093, -0.015701313, -0.003097831, -0.043264333, 0.02280462, 0.01313212, -0.0038700625, -0.015986158, -0.021118727, -0.025119096, -0.03008881, -0.018331604, -0.042348847, 0.009910408, 0.021207374, -0.007815515, 0.010418821, 0.012679588, -0.0046166764, 0.014863584, -0.03722458, -0.006816425, -0.035929237, 0.0009165518, -0.023999067, 0.023947725, 0.012816277, -0.028327214, 0.03150553, -0.005176656, -0.032615505, 0.031819664},
			{0.016581686, -0.02074642, 0.024237294, -0.018477654, -0.01692289, -0.0013249017, 0.019952646, -0.027051391, -0.037238844, -0.010276616, -0.0047112177, -0.006702666, -0.026928054, 0.02020375, 0.01603734, -0.011752165, -0.034721993, -0.031648196, 0.0034469, 0.0013545925, 0.0073261894, -0.032124173, 0.022358159, -0.014672734, 0.01770596, 0.023543578, -0.0006890153, -0.0057634246, 0.038700003, -0.004380423, -0.022206895, 0.0011016945},
			{0.0023660392, -0.017509576, -0.0032449872, 0.015223724, -0.013391411, -0.0027162165, -0.0144928815, -0.03194073, 0.017183095, 0.02836166, 0.013886541, -0.033735864, -0.03814612, -0.016825046, 0.008346253, 0.0056393165, -0.008746901, 0.005478397, 0.027171789, 0.027213788, -0.00987733, 0.010472375, 0.016449822, 0.012223553, -0.0037288847, -0.026578221, -0.0072797164, -0.041967545, 0.033171184, -0.009408603, 0.009598795, -0.019550668},
			{-0.02547253, -0.031352982, 0.029466216, 0.0073255254, -0.026773, 0.003391597, 0.008943463, 0.03556639, 0.011406125, 0.013770905, 0.018535499, 0.008615498, -0.03752293, -0.009667287, -0.014329431, -0.028736977, 0.021569418, 0.030980274, 0.0032641678, 0.022964293, 0.0038951933, -0.023044003, 0.030667704, -0.020487856, 0.021879822, -0.022260163, -0.027067743, -0.015780024, 0.064489104, -0.033682767, -0.015567107, -0.03160802},
			{0.01305549, 0.015318925, -0.019792479, -0.03343205, -0.0030551818, 0.027798656, -0.0026605406, -0.025148205, 0.021022307, 0.029695097, -0.03596482, -0.023883305, -0.04657806, 0.0123444535, 0.020152468, -0.024109198, 0.006995131, -0.015699852, -0.025336727, -0.014006029, -0.028470218, -0.0053444356, 0.027353305, -0.029122435, -0.02162867, -0.03649235, 0.010416453, 0.017219184, 0.054027922, 0.01618965, 0.008956507, -0.023382846},
			{-0.02495778, -0.018038955, 0.0043873447, 0.02377632, -0.02519675, -0.009215597, -0.0014211322, -0.017657703, -0.0046730917, -0.030394822, -0.005047417, -0.026208661, 0.04927901, -0.0305245, 0.005566795, 0.020088475, 0.019740824, -0.034187965, 0.024087809, 0.01642266, -0.0122230705, 0.023576528, -0.014044889, 0.029402234, -0.0052648974, 0.0113786915, -0.026812112, 0.0098798, 0.08385593, -0.0067693125, 0.0017508529, 0.002579905},
			{0.007002226, -0.012720221, -0.03037959, 0.0249793, -0.00076105155, -0.011397477, 0.010957766, -0.011682674, -0.0013032324, 0.021096488, 0.00799036, -0.07806544, 0.015230897, 0.018251754, -0.0063306806, 0.019577593, 0.016950145, -0.014327591, -0.0044711484, 0.009037608, -0.007292377, 0.023725882, -0.013330322, 0.034305453, 0.016482601, 0.025153913, -0.0042914497, -0.03439262, 0.067027606, 0.015299137, -0.035257112, -0.014224625},
			{0.01065697, -0.012399665, -0.030164571, -0.006407654, -0.0018663863, 0.008320576, 0.006682566, -0.02560487, 0.024825908, -0.02177887, -0.021562146, -0.03256003, 0.068655886, -0.024535002, -0.017190918, -0.024378516, -0.016857618, 0.031315535, 0.032050557, -0.023685003, 0.0060642883, -0.019176476, 0.021382788, 0.015051536, -0.028474117, -0.03752465, 0.012957373, -0.013309756, 0.085037574, 0.0039324956, 0.0042708963, 0.011887918},
			{0.021722801, -0.03744174, -0.014689534, 0.01824319, -0.014188037, 0.0020468372, 0.028228724, -0.005173821, -0.026279572, -0.023666339, -0.013593342, -0.0677432, 0.036323283, -0.0005189888, 0.01673248, -0.012332978, -0.038175486, -0.009150432, -0.014892322, 0.026806384, 0.022002097, 0.025274996, -0.0089717265, 0.009628691, 0.0043744766, -0.03784482, -0.039429706, -0.041850798, 0.034605514, 0.025908943, 0.030905977, 0.0061604357},
			{0.03550121, -0.018062742, -0.030518303, -0.026858527, 0.006214268, 0.007915627, -0.0033015865, -0.01642893, -0.013532847, -0.023983352, -0.03496352, -0.021307727, 0.048246272, 0.0060046427, 0.028525636, -0.006752674, 0.012911087, 0.014940523, -0.042684715, 0.028189324, -0.003087327, -0.010727623, -0.038847364, 0.026744492, 0.029736994, 0.025617512, -0.01613922, -0.024958976, 0.05523321, 0.030849233, 0.0016579367, 0.007465282},
			{0.0509916, 0.022303525, -0.012711667, -0.02121926, -0.018113406, 0.02930556, 0.028538877, -0.019261766, 0.008258317, -0.020718021, 0.013829732, -0.06687862, -0.026541298, 0.033114932, -0.043603342, -0.0042183306, -0.0038978348, -0.019616188, -0.03820498, -0.012981551, -0.036365774, 0.0056698704, -0.02483923, 0.01897338, -0.0026070324, -0.027918411, -0.042472232, 0.026612123, 0.057101034, 0.0054818164, -0.00639984, -0.027151229},
			{-0.019948328, 0.03354729, 0.002323821, -0.02588664, -0.019067638, 0.009146893, 0.00012190081, -0.0012138002, 0.0036420568, -0.04016006, 0.028420053, -0.018303214, 0.014567923, 0.020514607, 0.011913548, -0.011791645, 0.0016326965, -0.020358583, -0.006221318, 0.022334594, -0.0017912835, 0.028402274, 0.030165741, -0.021348897, 0.0064878706, -0.018823462, -0.014488022, 0.0004475438, 0.032700058, 0.017482659, -0.033343274, 0.0048615546},
			{-0.042452894, -0.02583417, 0.007291834, -0.020025328, 0.009371786, 0.02368555, -0.012571992, -0.018528907, 0.015979744, 0.016227275, -0.02920513, 0.015654651, 0.011004856, 0.035949685, -0.024740959, 0.026936127, -0.012713133, 0.010036308, -0.027909996, 0.023366597, -0.013675848, -0.030694654, 0.024289751, 0.018741332, 0.009587442, 0.016036874, 0.013205742, -0.028110106, 0.018747596, -0.0015419036, 0.00931818, -0.0039713928},
			{0.023754379, -0.018000403, -0.02823448, 0.01637089, 0.029927338, -0.017787034, -0.042371865, -0.028545553, 0.007476527, 0.019761069, -0.018868608, -0.03186743, 0.04157557, 0.01647697, -0.022872634, -0.021177724, 0.009825721, -0.03331264, -0.04217818, 0.010592794, -0.018597787, 0.005108519, -0.007860878, -0.03506723, 0.024136499, 0.014216952, -0.02183242, -0.000649255, 0.026813224, 0.0030781275, 0.033201545, 0.00018746711},
			{0.010667438, 0.011773658, 0.015486466, -0.03141731, -0.03468168, -0.013229436, -0.018747617, 0.027073592, -0.029650562, -0.0007546277, 0.007212201, -0.02928434, -0.004865346, -0.03324499, 0.014107489, -0.016908227, 0.01877515, 0.02540987, 0.009494106, 0.004028554, 0.015511006, -0.011916596, 0.010925262, 0.021362413, -0.0016211485, -0.019224914, -0.0031315521, -0.0014400592, 0.026079753, 0.0124820415, -0.00037722662, -0.000529458},
			{-0.025797278, 0.010844656, -0.029298177, -0.0014200109, -0.016396835, -0.038233787, -0.0016218696, 0.007812921, -0.00030456198, -0.030033002, 0.027583024, -0.022168225, -0.010110614, -0.016119128, -0.027177544, 0.008616184, -0.029526832, 0.0149690285, -0.019516971, 0.021619823, -0.020840662, -0.00044311662, 0.016594091, 0.0018253773, -0.03799749, 0.023033883, 0.016506663, -0.023539893, 0.0330802, -0.025262808, -0.0025316067, -0.023697577},
			{-0.039812237, -0.038705334, -0.025938027, 0.02258532, -0.03607696, 0.021342345, 0.023581324, 0.0143196285, -0.022733686, 0.0017843089, -0.029814227, 0.0049407254, -0.002034532, -0.022086794, -0.013524833, 0.02071554, -0.004481577, 0.014535297, 0.015928185, -0.034164786, -0.011151614, -0.014491165, -0.013388401, -0.026970675, 0.023632105, -0.016968042, 0.018347627, 0.027583275, 0.04189695, -0.039407533, 0.024238572, -0.037745416},
			{-0.011780732, 0.034032788, -0.009848371, 0.017423512, 0.027316311, 0.028043399, 0.0150774475, -0.020991413, -0.036146373, -0.004445888, 0.028221497, -0.009980219, 0.06540081, 0.026566066, 0.02811452, -0.034447484, 0.012778681, -0.015286583, -0.013523013, -0.043323413, -0.037715863, -0.038841944, 0.019404318, 0.036052004, 0.019263253, -0.03643668, 5.7279645e-05, 0.0067065274, 0.108303875, -0.00041990093, 0.035504803, 0.017316723},
			{-0.0036147921, -0.0031826987, -0.024530323, -0.01514995, 0.007899528, 0.02433944, 0.021888891, 0.015039492, -0.018469764, -0.02765046, -0.013693487, 0.0183366, 0.0021728587, -0.031149222, -0.021502174, 0.0054668244, 0.019211428, 0.0046199374, -0.025113892, -0.023994599, -0.0149406325, 0.001959118, -0.03611186, 0.0014123283, 0.018747926, 0.023785885, -0.033184778, -0.0318669, 0.09302287, -0.041231994, -0.0022466443, 0.018550798},
			{-0.013818558, -0.017567681, 0.02816737, -0.0146241225, 0.018005392, 0.0088640675, 0.013136932, 0.006766543, 0.00746708, 0.02030798, -0.033030797, -0.021111565, 0.06203627, -0.02157214, 0.028749283, -0.026718197, -0.042385485, 0.020019613, 0.005533177, -0.014193188, -0.02623728, 0.028751628, 0.026224902, -0.030779855, -0.038707357, -0.028698245, 0.029423162, -0.035883006, 0.088215284, -0.0023806936, -0.008114461, -0.034822915},
			{-0.07155774, 0.01336169, 0.017011063, -0.0018412418, -0.00027428532, -0.020389771, -0.006103501, 0.010074519, 0.0021929746, 0.023435608, -0.0028318944, -0.022136256, 0.043608148, 0.0016402677, 0.021217566, 0.016944166, 0.023133041, 0.00086184964, 0.02404647, 0.01701267, -0.035693895, -0.029600693, -0.038686953, -0.01102584, 0.019297585, 0.008659842, -0.033303447, 0.0049979617, 0.07982806, -0.008861268, -0.03143152, 0.02359533},
			{-0.05904998, -0.030994598, -0.01825453, 0.023440331, -0.031606715, -0.041018665, 0.007114739, 0.034517244, -0.018883295, -0.025146602, -0.043289065, -0.040266942, 0.058239534, 0.009322036, 0.025172904, 0.025646474, 0.026883358, -0.024422163, -0.029590232, -0.029858463, -0.027557239, -0.0036930488, -0.011162015, -0.016198827, 0.018452752, 0.011529869, -0.04013483, -0.011691738, 0.15382014, -0.036815017, 0.0015165769, 0.0062229782},
			{-0.035981942, -0.013537966, -0.028245026, -0.03714302, -0.021626856, 0.018526211, -0.016263742, -0.011138406, -0.01645466, -0.028640956, -0.03733046, -0.044426963, 0.06697867, -0.0024397634, -0.024182772, -0.026623096, -0.031221911, 0.028999016, 0.029871454, 0.019431569, -0.016402308, 0.006316324, -0.033270773, -0.020142742, 0.027357036, -0.046224795, 0.0043249996, -0.028087217, 0.14907949, -0.0047369013, -0.02739409, -0.027656067},
			{-0.056479245, -0.010081529, -0.0062518194, -0.037711963, 0.003179639, -0.029643377, 0.013880996, -0.03446158, -0.02091422, 0.030462662, 0.022506088, -0.11110667, 0.07042117, 0.021268629, 0.014163655, 0.008305999, 0.030504376, -0.008532111, 0.02844576, -0.0011895255, -0.009342141, 0.022988802, 0.0019923032, -0.031401813, -0.04066922, 0.0016522544, -0.019754356, 0.027290232, 0.20525841, 0.02981475, -0.0018966682, -0.0032059525},
			{-0.10071037, -0.03769499, -0.016162759, 0.0025457228, 0.023870174, -0.026823169, -0.0022611343, -0.02981102, 0.019431885, -0.0032111309, -0.028507132, -0.07680797, 0.11418758, -0.036520787, 0.01902077, -0.02854418, -0.026265312, -0.01567931, 0.025678769, -0.01671987, -0.037805215, -0.02482785, 0.029634478, -0.019794146, 0.022959298, -0.012747476, -0.013490843, -0.0031902946, 0.22892751, -0.035080694, 0.027757674, 0.028366424},
			{-0.082480855, -0.033789594, 0.009375586, -0.034918923, 0.003647871, -0.038480084, 0.020260017, 0.0046929717, -0.039491232, 0.019442221, 0.014273504, -0.05207043, 0.12299462, 0.011962399, -0.01873742, 0.03054809, -0.0008733263, -0.008324968, -0.03040168, -0.038929895, 0.017596949, -0.02874064, -0.019012898, -0.029908605, 0.0244554, -0.026979515, 0.0034419892, 0.022077005, 0.22168097, 0.02638075, -0.035585638, -0.04381691},
			{-0.10425827, -0.031556677, -0.017648615, 0.012551933, 0.02381509, 0.011994798, -0.00068770145, 0.036637545, 0.016778808, -0.02991591, -0.014834868, -0.06694095, 0.12015997, 0.020076714, -0.038302418, -0.006811046, 0.015193852, 0.016355459, -0.016417556, -0.04205662, 0.024259876, 0.014210551, -0.003165094, 0.02935373, -0.0082133915, -0.0060493387, 0.023597091, 0.022647344, 0.15970968, -0.0030364157, -0.00083500147, -0.023571983},
			{-0.09713031, -0.025258254, -0.036284927, -0.02983678, 0.0082589295, 0.00075494434, 0.009663646, 0.024118833, 0.0037381495, 0.0021294854, -0.0003555994, -0.029479882, 0.06703523, 0.027695313, -0.00012348061, -0.005443887, -0.03144414, 0.02419364, -0.027989287, -0.0048822365, 0.01976053, -0.027426558, -0.03655767, -0.00062671304, -0.0395654, -0.03704753, -0.01903402, 0.028798616, 0.14390893, 0.016685722, 0.011186499, -0.008735699},
			{-0.048013818, 0.016247943, -0.020392522, -0.018468212, 0.00635244, -0.025618104, -0.028837103, -0.0044131204, -0.004323116, -0.015742617, 0.015821418, -0.04737463, 0.097533315, -0.02862257, -0.028447043, 0.03419474, 0.007144947, 0.012126349, -0.0211425, 0.015200885, -0.020157013, 0.02682862, 0.00092036894, 0.029440463, -0.008100594, 0.02618564, -0.043553416, -0.03587545, 0.17645387, -0.0279122, -0.0023665465, -0.04267475},
			{-0.10421851, -0.03386966, -0.014411369, -0.008965799, -0.03243487, -0.019259145, -0.0042834613, 0.01371035, 0.007638794, 0.031734426, -0.0045851395, -0.025458492, 0.09404152, 0.031298526, 0.017343054, 0.0008724993, -0.038363338, -0.0330299, -0.020648014, 0.005936114, 0.02330093, -0.03563465, -0.03306178, -0.015881844, -0.039945696, -0.037534826, -0.027978137, 0.009737477, 0.10313531, 0.03212274, 0.030300997, -0.04053143},
			{-0.06798621, -0.03458284, -0.000719448, -0.032273762, 0.017739506, -0.0365999, 0.031792253, 0.023741834, -0.008199861, -0.02878282, -0.04097838, -0.06668042, 0.11188565, 0.005010683, -0.010288337, 0.013807799, 0.009031, -0.013344267, 0.01607474, 0.002773702, 0.018574491, 0.018314462, -0.031285148, 0.004223328, 0.0017930011, -0.018439407, 0.028140763, 0.013223619, 0.15768865, 0.012037068, 0.017913684, -0.01922292},
			{-0.0863209, 0.02935609, -0.0082441745, -0.041747034, -0.027168173, -0.03289644, -0.025266932, -0.027899127, -0.025018286, -0.019587511, -0.017212199, -0.06844527, 0.10530765, 0.020735312, -0.031005794, -0.041338783, 0.0017048914, -0.017168727, -0.016534688, -0.03404384, 0.0024276562, 0.020444514, -0.028287163, 0.016172256, -0.025394715, -0.029692583, 0.031898312, -0.02142884, 0.11803426, -0.020655371, 0.018716726, -0.006956555},
			{0.20976363, 0.032331735, -0.03199268, 0.029126117, 0.0075593605, 0.024620056, -0.016979681, -0.036959354, 0.030344095, -0.010883142, -0.003094727, -0.171059, -0.106433794, 0.01495732, -0.03112045, -0.0047039427, 0.016160147, 0.015763588, 0.002894796, -0.027375253, 0.03231413, -0.03189795, 0.0028461043, 0.004824754, 0.005697649, -0.0154289715, 0.018218398, -0.04121847, -0.11452829, 0.015061181, 0.027211905, 0.023975188},
			{0.21847595, 0.0025022128, -0.03818545, -0.039806586, -0.024336282, -0.01987105, 0.026172379, 0.017004684, -0.024955565, 0.036954574, 0.005106457, -0.1453164, -0.1524199, 0.014316376, 0.0030808412, -0.004236961, -0.010138876, -0.0065212213, 0.015482758, 0.022701906, -0.023255501, -0.008443533, -0.027711237, -0.022836633, -0.019128548, -0.032869842, 0.021689652, 0.0028578106, -0.10347992, 0.025278118, 0.018488556, -0.008703215},
			{0.15440702, 0.0013324039, -0.035212677, 0.030637767, -0.020023612, -0.019899292, 0.008945896, -0.018306347, -0.043042712, 0.010615966, 0.011041649, -0.10467455, -0.17944439, -0.02005499, 0.0186163, -0.0023893614, -0.024220824, -0.012839483, -0.027228132, 0.024847582, -0.0071980823, 0.022858854, -0.031329058, 0.009413332, -0.0044294456, -0.02511087, 0.00039944684, 0.005300862, -0.13958465, -0.0073317043, 0.017724283, -0.027659968},
			{0.12514664, -0.006992106, -0.009300211, 0.011923482, -0.038599487, -0.0022252598, 0.012718867, 0.023848198, -0.0058202986, 0.032987323, -0.0038288415, -0.06535387, -0.11873644, 0.0050709844, 0.029362844, -0.008192083, -0.009073766, 0.011063706, -0.026444253, -0.0026432972, -0.03795044, -0.0005633154, -0.014968527, -0.024055788, -0.013391104, -0.013003002, -0.016528435, 0.029810673, -0.11234882, -0.042374324, 0.029983811, -0.00702121},
			{0.14290804, 0.0031111538, -0.03570967, -0.02499934, -0.015911954, 0.018072775, -0.011954753, -0.010593329, -0.02232836, -0.013266305, -0.021292882, -0.10852632, -0.17326172, -0.014672788, -0.004187193, -0.011327385, 0.027134258, -0.027246982, 0.014058241, 0.0109725855, -0.028526228, -0.014575941, -0.042695064, 0.01955168, -0.033350177, -0.03042978, -0.042593237, 0.007268791, -0.11611952, -0.04020996, 0.030120954, -0.026075127},
			{0.14573665, 0.02537158, -0.0031979352, -0.027846422, -0.019530842, -0.012736972, 0.026988493, -0.03161512, -0.01543174, 0.019196644, 0.011267833, -0.093364455, -0.122845575, -0.035123095, -0.01945389, 0.012126574, 0.020596938, 0.01187114, 0.025861736, -0.006122404, -0.024717994, -0.008244668, 0.015543111, -0.03066189, 0.022519724, 0.021549623, 0.018300017, 0.0170731, -0.05010085, 0.019271849, -0.03771479, 0.03125776},
			{0.13468125, 0.023514163, 0.018239526, -0.022255445, -0.0020103632, 0.006241119, -0.023307135, 0.015100446, -0.036703892, -0.019666158, -0.035412297, -0.09987285, -0.12834707, 0.008508425, -0.0055092406, -0.025818545, -0.024591701, 0.010782629, 0.031192305, -0.010547364, 0.00015376136, 0.017219441, 0.014252329, 0.017020412, -0.039416518, 0.016174976, -0.03973831, 0.006482981, -0.037013356, -0.018324982, -0.015342249, 0.012954065},
			{0.110792786, 0.026482975, 0.014812486, 0.020193614, -0.029263696, -0.03665742, 0.0014932194, -0.031914305, 0.029244928, 0.0062470073, -0.010742654, -0.114383034, -0.10042392, -0.011330288, 0.030907664, -0.018335156, -0.016985236, -0.030536117, -0.042230967, 0.017597107, 0.012763511, 0.027717613, -0.01874069, 0.02828288, -0.020023998, 0.010291265, -0.0013168921, -0.022667613, -0.039601423, 0.008460039, 0.003499195, -0.009749005},
			{0.10559638, -0.02265541, -0.017848052, -0.0036411535, -0.012021159, 0.031079529, -0.026390722, -0.01827837, -0.028118685, 0.04087673, -0.041888434, -0.12198425, -0.08750858, -0.023380276, -0.011029583, 0.008984136, 0.007793611, -0.020322762, -0.026377087, 0.024069592, -0.016520655, 0.027892504, 0.018718138, -0.01378784, -0.0147083765, 0.034108736, 0.019170497, 0.016735436, -0.02445374, -0.035992462, 0.03698623, 0.026716193},
			{0.11601133, -0.022690771, -0.022737416, 0.0023329135, -0.013445005, -0.025924956, 0.015706485, -0.0057718456, -0.02240502, 0.010697238, -0.040844508, -0.13321623, -0.06445134, -0.032481242, 0.029964365, 0.008977297, -0.041761, 0.023827758, -0.041478194, 0.008146015, 0.019261677, 0.024989208, 0.026606584, 0.015178345, -0.023904445, 0.0323402, 0.025939265, -0.030569248, -0.03109476, -0.021592908, -0.03313744, 0.006090751},
			{0.08563593, -0.03225087, -0.019170815, -0.02220254, 0.025048492, 0.020261778, 0.030079573, 0.03588731, 0.016738154, 0.043242797, -0.024964824, -0.10420163, -0.04586692, -0.017504478, 0.018464869, 0.035392504, -0.0067786356, -0.011505853, 0.023347117, 0.028612742, -0.018751284, 0.009035245, -0.012548456, -0.0067737587, -0.008307296, 0.012477499, -0.017402578, -0.03840656, 0.020224882, -0.012070796, -0.028863907, -0.04117811},
			{0.11927502, -0.002957177, 0.0066925394, -0.020187398, 0.024930004, -0.0032802294, -0.021429474, -0.006917013, 0.028713344, 0.014180499, 0.0004852425, -0.13498405, -0.08206717, -0.031330302, -0.0088675935, -0.02194778, -0.02482523, -0.0031435117, -0.038911056, 0.0014010753, -0.030884095, 0.023337306, 0.015627272, 0.035734594, 0.021236375, -0.017938154, 0.014551929, -0.037237253, 0.006081709, -0.0036856325, 0.024530038, 0.026381597},
			{0.051331937, -0.031120779, -0.02120503, 0.027382314, -0.03800487, 0.015491682, -0.024286086, 0.011295855, 0.015528981, 0.01419224, 0.007354236, -0.088079065, -0.055699486, 0.033986546, -0.024578633, -0.012959815, 0.025473768, -0.021347653, 0.002154619, -0.023262206, 0.016885467, 0.023947554, 0.015581722, -0.025864232, -0.004761985, -0.040998276, 0.030174216, 0.009456068, -0.021415653, -0.0438601, 0.021336146, 0.018368738},
			{0.041789487, -0.021046126, 0.030013632, 0.0031502615, -0.0029432105, 0.0072498103, 0.01814671, -0.013402022, -0.0068339524, 0.009759097, -0.008568323, -0.07190995, -0.025879448, -0.023959292, -0.015246999, -0.017648209, -0.035425294, -8.043274e-05, -0.03662308, 0.022370975, -0.030085336, 0.01138101, -0.007731919, -0.011528106, 0.024303284, 0.010567614, -0.004073611, -0.01592571, 0.04757527, 0.019803125, 0.0067516454, 0.007632791},
			{0.039241392, 0.025238596, 0.016926609, 0.007888551, -0.0050753704, -0.01909247, -0.0111760665, -0.028130993, -0.008545828, 0.010548135, -0.03007538, -0.015061402, -0.058676317, 0.008202922, -0.021153802, -0.018544495, 0.014403376, -0.028859172, 0.010201384, -0.029343996, -0.014645737, -0.010997529, 0.018924637, -0.017875707, 0.012743272, -0.024826715, -0.011178642, -0.023270182, 0.042474385, 0.012862046, -0.032032095, 0.022225652},
			{-0.0010756194, -0.0244789, -0.0041854065, 0.010464716, 0.03138286, 0.0043834886, -0.043980524, -0.020283522, -0.026404845, -0.0012983636, -0.023744311, -0.020138843, -0.06459688, -0.0037324913, -0.014247158, -0.02724288, -0.03531424, 0.012647022, 0.006265581, -0.010119456, 0.036887676, -0.038799472, 0.019848287, 0.01794817, -0.03939456, 0.016289718, 0.023357946, 0.01004038, 0.0388586, 0.010244532, -0.021854354, -0.0066789733},
			{-0.013176745, -0.033047006, -0.019553842, 0.0041383775, -0.027518563, 0.021529317, -0.043214012, -0.005111359, 0.004883172, -0.02851039, 0.014256055, 0.022922672, -0.08224408, 0.029499844, 0.026296262, -0.003710408, 0.007624337, -0.005300641, 6.0531267e-05, -0.026071524, -0.02908963, -0.0022168877, -0.01640532, -0.01688833, 0.0026499967, -0.02442679, 0.016871443, 0.013722889, -0.03540656, -0.029700302, 0.01978663, -0.023601273},
			{0.023761915, -0.03340939, -0.022134557, 0.027685443, -0.02543326, -0.033694554, 0.012861831, 0.003946159, 0.01730505, 0.016846372, 0.027308755, 0.0017295401, -0.0538546, -0.032771647, -0.04268877, 0.012440737, 0.029799435, -0.0028229356, 0.018077476, -0.006985297, 0.009001244, 0.0028235684, -0.023688216, -0.002656214, -0.011660509, 0.024266152, -0.042360608, -0.00082286226, -0.0021210776, -0.006310332, 0.03562823, 0.015079834},
			{0.024101354, -0.031334538, 0.02509171, -0.02652021, -0.027307678, 0.030072851, 0.0146688195, 0.036005832, 0.023336565, -0.041374434, -0.025568765, 0.009460554, -0.07898683, -0.03144499, -0.03371778, -0.033349562, 0.02407818, -0.015605792, -0.037690196, -0.038441803, 0.0016956776, 0.011061019, 0.019414347, 0.016699582, 0.0019652576, -0.0050337035, -0.042817637, -0.0022656817, -0.054141328, -0.040027376, -0.013455497, -0.011610479},
			{0.005746892, -0.021213386, -0.011105934, -0.008460307, -0.005794926, -0.01918708, 0.009797979, -0.018731514, -0.0062330556, -0.019596701, -0.028952884, 0.05153643, -0.04846348, -0.0063057095, -0.030030375, 0.013286336, 0.018615182, 0.032436505, -0.035341363, -0.022768963, 0.030707039, 0.0178899, -0.016705444, 0.025639392, -0.006100603, -0.026010398, 0.021344861, 0.008517062, -0.05688313, -0.029979996, -0.033654004, 0.028722066},
			{-0.02100759, 0.016967608, 0.00775776, 0.022357475, -0.004783011, -0.029463578, 0.02215656, 0.031941712, 0.0023781399, -0.04174588, -0.033722308, 0.052861854, -0.06022462, -0.01999657, -0.0040565887, 0.015040019, -0.03050396, -0.034433655, -0.04204536, -0.0056101466, -0.016426466, -0.0067250943, -0.035327908, -0.0041873157, -0.017669654, 0.0022567164, -0.023557767, 0.023801832, -0.058665384, -0.028609684, 0.008828025, 0.008248888},
			{0.024283355, 0.021675454, 0.00059097854, 0.02357427, 0.013089537, -0.017755654, 0.013617566, 0.002587244, -0.009539955, -0.008422413, 0.013775574, 0.027492391, -0.07009898, 0.0058460534, -0.002315073, -0.00027932503, 0.022313517, -0.015112208, -0.021341365, -0.01522635, 0.016334634, 0.022251891, 0.010136736, 0.0040394925, -0.04235302, 0.024693701, -0.038189154, -0.03525287, -0.010777107, -0.00822104, -0.014168104, 0.0048515457},
			{-0.021954704, -0.038560517, 0.030364, -0.008572706, -0.028914385, -0.0142800305, -0.011659407, -0.03349388, -0.036494467, -0.0010044292, -0.0016085054, -0.026669431, -0.08068267, -0.030396681, 0.028123327, -0.00090467656, 0.0114511205, 0.033225857, -0.023715988, -0.040360272, -0.0038112774, -0.044125367, -0.0004042763, 0.008726891, 0.01852729, 0.004655444, -0.009581732, 0.01984061, -0.031689733, -0.04005249, -0.027089968, -0.025820922},
			{0.028278604, 0.02976903, 0.017587027, -0.04004883, -0.038551256, -0.017016098, -0.026290167, 0.015160754, -0.030026028, 0.036966354, -0.01886389, 0.033312064, -0.06474661, -0.027821202, 0.0021004328, 0.0035615007, -0.007488397, -0.024613755, -0.010993178, -0.024644302, -0.023530653, -0.008725686, -0.03574573, 0.0023100376, 0.03188417, -0.004337172, -0.026211949, -0.0022352498, 0.024273755, -0.04355034, 0.0024541728, 0.027647091},
			{-0.017887644, 0.017221594, 0.016728932, -0.008839792, -0.0004409767, -0.03016287, -0.028637927, 0.03266587, 0.0005372673, -0.025718426, -0.0043338374, 0.020306665, -0.0037586014, -0.024839412, -0.035957716, -0.011331994, -0.0030636715, 0.026979357, 0.0010131582, 0.024429336, 0.007849634, 0.017781619, -0.013618296, 0.01576509, 0.0149132125, 0.019261314, -0.0025706955, 0.008915261, 0.029054042, -0.04368832, -0.0056862943, -0.009706651},
			{0.051966812, 0.033606324, 0.0019816987, -0.016844118, 0.025277913, -0.031647272, 0.015908618, -0.016813466, -0.026554534, -0.02810748, 0.009286234, -0.017773455, 0.02052575, 0.00936532, -0.019553652, 0.033180986, 0.0046400297, 0.01920962, -0.036852594, 0.007935115, -0.008457204, 0.025428737, 0.0068450905, -0.022627499, 0.005872083, -0.03551372, -0.033796225, -0.016437242, 0.054998975, -0.0067021376, -0.023485485, -0.035449933},
			{0.04434899, -0.019571932, -0.012557227, 0.013192877, -0.036754042, 0.0030562181, 0.0006080604, 0.029036991, 0.019348036, -0.022849282, 0.03180639, -0.029890217, 0.013920744, 0.024577722, -0.004561733, 0.009864126, 0.021508878, -0.021929197, -0.0052392655, -0.02447447, -0.024038808, 0.023444809, -0.031282086, -0.015018312, -0.0027173997, 0.023602698, 0.028983774, -0.034807798, 0.012601461, 0.016582565, -0.026592758, -0.007409688},
			{0.0060919793, -0.03685324, -0.0026940794, 0.0072120945, 0.030081, -0.018622449, -0.002439462, 0.024285056, -0.028342681, -0.023570048, -0.017375974, -0.049311545, -0.0210825, 0.035922863, -0.012417138, 0.033485897, -0.0067596687, -0.010237906, -0.019024922, 0.01037304, -0.022793949, 0.031040091, 0.00025231548, -0.0088646095, -0.04201356, 0.013829548, -0.023063028, 0.0046169874, 0.030731976, -0.036589034, -0.029583842, -0.02198881},
			{0.040207285, -0.009548486, 0.00786537, -0.031007143, -0.016622864, -0.004947842, 0.007033096, 0.0101286955, -0.01736781, -0.006105876, 0.008832521, -0.017103001, -0.036519535, 0.035660982, 0.011715047, -0.03572785, -0.029271234, 0.018315308, 0.021995597, -0.002917148, 0.028058141, -0.023919906, -0.028607093, -0.03724466, -0.027183319, -0.022377156, -0.04373208, -0.014934059, 0.0017323919, 0.0096363835, 0.0322114, 0.032010518},
			{0.027466191, 0.0014091528, -0.0069128103, -0.021171257, 0.00019824033, 0.026223408, -0.04175545, 0.017755441, -0.033040106, 0.011691735, -0.010851326, -0.031147622, 0.005248327, -0.026929563, 0.028347977, 0.004540752, 0.029643385, -0.03422505, -0.040173832, 0.003672905, -0.0039606206, -0.030245313, -0.008815747, -0.023770556, 0.022424785, 0.0074520456, 0.016991507, 0.021247102, 0.019097604, -0.01235276, -0.030341271, -0.016843418},
			{0.020456439, -0.018191503, -0.023825081, 0.010791561, 0.010919433, -0.026005704, -0.038036954, -6.0055405e-05, -0.020158958, -0.007237669, -0.0006145309, 0.0048237056, 0.023934985, -0.005201608, 0.01787014, -0.033692125, 0.0075009638, -0.021651428, -0.0021257664, -0.029236184, -0.0071686953, 0.0017082815, -0.019983193, -0.0032628216, 0.012531462, 0.02913637, 0.0065205907, 0.02735652, 0.013360441, -0.0032315894, 0.013030503, -0.026174322},
			{0.028963422, 0.003169137, -0.016313953, -0.03364773, -0.028429179, -0.033100016, 0.03156369, -0.009722125, 0.013604075, 0.0041533257, 0.0039560897, -0.04673007, -0.009923162, 0.011852197, -0.007396523, -0.0065144775, 0.0028379136, 0.03288831, 0.00014448057, -0.010377531, -0.004493419, 0.012531289, -0.030447757, 0.01750487, -0.02920211, -0.012180742, -0.029682692, -0.013116495, 0.027558886, -0.039466057, 0.014604788, -0.02125864},
			{0.010874444, 0.01578455, -0.008251052, 0.03186938, -0.031643547, -0.016528135, 0.028179452, -0.013730457, -0.019610964, 0.03131612, -0.04318003, 0.0086935405, 0.05872536, 0.028512515, -0.0008076064, -0.0020880778, 0.020637754, 0.033082753, -0.033105776, -0.011474887, 0.028190657, 0.031732347, 0.012143534, -0.015981639, -0.004750392, 0.023917083, -0.035846725, -0.015273688, 0.071282595, 0.00923707, 0.0238484, -0.010994338},
			{0.00010348727, -0.02943475, 0.0241423, -0.00041808918, -0.03574637, 0.029249305, -0.019496104, 0.026556924, -0.0060814084, -0.039481606, 0.015528849, -0.004071501, -0.021246497, -0.023968609, -0.008556345, -0.026727518, 0.019637736, -0.03398104, 0.028197996, 0.009851839, -0.030664662, -0.001677724, 0.013572536, -0.012215527, -0.024438, -0.026871216, -0.041854173, 0.03171937, 0.045396578, -0.031475794, -0.010536972, -0.031518843},
			{0.012204025, -0.013502799, -0.002148068, 0.000667995, 0.018783972, -0.021615598, 0.021202797, 0.012461282, -0.014837913, -0.019971201, 0.024656005, 0.013241122, -0.007984484, 0.019507658, 0.01445368, -0.008301255, -0.042511284, -0.013328314, -0.0058980496, -0.03405786, 0.017914359, -0.026911398, 0.02731003, 0.034128226, 0.016080625, 0.008231133, -0.026689528, -0.031279, 0.0050867926, -0.04013991, 0.028565504, 0.025260715},
			{0.0067359945, 0.003977781, -0.013266757, -0.03601922, 0.0019864766, 0.006796599, -0.015517511, 0.036266826, -0.015720613, 0.023561008, -0.007579483, -0.043647222, 0.01568484, -0.033874597, -0.009680169, -0.0038534591, -0.02600948, -0.024317842, 0.0021522522, -0.038203727, -0.018049292, 0.006609909, 0.027540326, 0.017797738, 0.03185723, -0.021741968, 0.015661923, -0.016350914, 0.06740843, -0.022861283, -0.0309752, 0.025112139},
			{0.008098519, 0.03308433, 0.007485555, 0.006732762, 0.008302014, -0.025304474, -0.043281507, 0.007312719, -0.023181366, -0.03561399, 0.017654609, 0.0099074105, -0.028738935, -0.00207128, 0.015479541, -0.017340394, -0.013167899, 0.026656993, 0.011911815, -0.029602896, -0.008227527, -0.026118122, 0.0026392704, -0.03576497, 0.021842789, -0.035488732, 0.0041674995, 0.020980632, 0.01786797, 0.023960242, -0.015144948, -0.024011968},
			{0.012298745, 0.019180639, -0.028054528, -0.019042991, 0.012764729, -0.036427047, -0.03733289, 0.021996535, -0.026377156, -0.026066372, 0.016909203, -0.009675891, -0.01726689, 0.011632383, 0.012599552, -0.025196029, 0.02655506, -0.017909894, -0.005908024, 0.020644298, -0.015044916, 0.01752802, -0.0145542, 0.01990034, 0.011081026, 0.023901224, -0.0068698493, -0.02728485, 0.061300445, -0.016092088, -0.03526033, 0.02522871},
			{-0.023066565, 0.025184775, -0.0028442692, 0.027963625, -0.033941727, -0.011296777, -0.0069665834, -0.016039759, -0.026616147, -0.04180671, -0.0064214556, -0.020388419, 0.019990563, 0.036507137, 0.028394321, -0.0090257125, -0.018181171, -0.01038973, -0.025925234, 0.013892317, 0.024150912, 0.01011568, -0.020957554, 0.0046600215, 0.011962227, -0.02208973, -0.018980427, -0.03609822, 0.0310494, -0.028580194, -0.035296943, -0.03897197},
			{-0.030109156, -0.03198873, 0.030189462, -0.023030788, -0.03508704, -0.024321176, 0.018145164, -0.018333578, -0.027776076, -0.0015033789, -0.03765642, -0.07678179, 0.067022145, 0.0355288, 0.019739803, 0.034386665, -0.041338507, 0.023357313, 0.012940768, -0.03458067, -0.004846759, 0.02038084, -0.008611686, -0.0045887046, -0.017581379, -0.040388133, 0.010209752, 0.025348721, 0.052990258, -0.015851619, -0.0006928742, 0.028388157},
			{-0.0014293155, -0.015386596, -0.004674764, 0.027845653, 0.022294793, 0.012430144, -0.00020265822, 0.0028618686, -0.01878999, -0.0018391239, 0.02635713, -0.062799826, 0.0344305, 0.036065683, -0.030184347, -0.036965746, -0.027587146, 0.032441698, 0.002634701, 0.00042525848, 0.026295215, -0.034822203, -0.013345298, -0.018321726, 0.0016838723, -0.03549997, -0.041821014, -0.0058454205, 0.032451414, 0.02760083, 0.017634131, -0.019009374},
			{-0.010941119, 0.02071956, -0.04210658, 0.022914384, -0.0066806087, -0.0257621, -0.035796173, -2.7231872e-05, 0.018001283, -0.017107982, 0.002095665, -0.033698317, 0.0004018869, -0.03177465, -0.038811322, -0.019691505, 0.00071004604, -0.033181924, -0.017100453, -0.022981184, 0.029338546, -0.023504397, -0.006957391, 0.024333932, -0.024366258, -0.024701076, -0.013075851, -0.01733897, 0.03488759, 0.00095219776, 0.00028623268, 0.03162146},
			{-0.021009147, 0.031337112, -0.00082583335, -0.041223127, -0.024453698, 0.029837798, -0.042709954, 0.032871135, -0.019964268, -0.035371136, -0.004057758, -0.060707465, 0.039497767, 0.023965608, 0.009993356, 0.016359353, -0.01660289, 0.016192555, 0.03020139, 0.011876924, 0.014747668, -0.0022613322, 0.026915684, -0.025395816, 0.012100557, -0.02127376, -0.04255821, 0.025485145, 0.05752336, -0.033210568, 0.007991888, -0.019440342},
			{-0.02251836, -0.03706772, 0.0187549, -0.00013358779, -0.017262738, 0.016415713, 0.012024995, -0.022872847, -0.028973054, -0.020863656, 0.0013073507, 0.011610562, 0.036766775, 0.02357132, -0.002651108, 0.029868353, -0.029691497, -0.00072948635, 0.004232033, 0.027280007, 0.0175501, 0.014238449, -5.6924404e-05, 0.033636093, 0.0023286024, 0.027012805, -0.021204822, 0.00058113347, 0.03196646, 0.0020585458, -0.012973746, 0.028895875},
			{0.0021076282, -0.01026231, 0.0030622894, 0.0013129631, -0.038791236, -0.04065296, -0.0075559686, -0.006161563, -0.03745334, -0.04076431, 0.016829286, 0.01566952, -0.021541663, -0.017940717, -0.02756491, 0.028934287, 0.024882756, 0.013277847, 0.021134347, -0.039265044, -0.008214293, 0.006401177, -0.014859184, -0.00025831908, -0.014070348, 0.024000764, 0.025680907, -0.039559253, -0.02826151, -0.00025167599, 0.0033666976, 0.0066473857},
			{-0.04044752, 0.0056353956, 0.0065610884, 0.02581527, 0.00016912719, 0.029913684, 0.005394132, -0.0037164576, -0.034310542, 0.00085636077, 0.00021948385, 0.0367585, -0.009168247, -0.028825514, 0.027458983, -0.0021217656, 0.020750925, 0.025857113, -0.007839136, -0.02794788, -0.018905634, -0.03901857, -0.033995897, 0.0099160895, 0.02288395, -0.018485902, -0.043399785, 0.0006901007, -0.0029630829, -0.016125683, 0.02072186, 0.018830756},
			{0.011299589, 0.023138348, 0.014376187, 0.027601209, -0.0075640865, -0.041812155, -0.038004775, -0.0017483272, 0.0018929534, 0.010888387, 0.007761551, -0.018308865, 0.01826581, 0.030103914, 0.023115499, 0.013454067, -0.01314356, 0.015135076, -0.024123233, -0.04098326, -0.015394995, -0.036946245, -0.0030183524, 0.030026771, -0.0050260886, -0.027800174, -0.008315644, -0.01930536, -0.027126102, 0.009023668, -0.018561792, -0.0019609923},
			{-0.030186517, -0.028934827, -6.233269e-05, 0.025591753, -0.029359682, 0.030844836, -0.031719092, 0.021952558, 0.02352435, 0.013926427, -0.010638415, -0.010586886, 0.028155822, 0.023841083, -0.025271498, -0.029138977, 0.01592675, -0.03745522, 0.0053854617, -0.008771955, -0.01952703, 0.024334747, -0.035727885, 0.0050132014, -0.033635926, -0.012800452, -0.014657774, -0.031603135, 0.07348934, -0.010624499, -0.0081640445, -0.0060458193},
			{0.005941344, -0.038399205, 0.019305909, 0.023640554, 0.030963091, 0.018799659, 0.019692222, 0.014754429, 0.0093269525, -0.015317313, -0.038924895, 0.019675927, 0.04712866, 0.020967517, -0.026565183, -0.020082561, -0.037839707, 0.035333738, 0.011788235, -0.03382898, 0.018102404, 0.027714612, 0.0004600788, -0.0033505522, 0.024682863, -0.020873545, -0.01622949, -0.025037982, 0.08255063, -0.014887232, 0.023628768, -0.0017050351},
			{-0.05834587, 0.024270825, -0.023435904, 0.020225737, 0.006900361, -0.03422292, -0.029752618, -0.00846703, 0.007488725, -0.03047352, -0.0346659, -0.021896917, -0.009924087, 0.035833433, -0.040052217, 0.020114487, 0.02880674, 0.033619054, -0.019114975, -0.039873153, -0.034327835, -0.042434312, -0.02773287, 0.002678793, -0.005193091, 0.0031464566, 0.021964857, -0.021738736, 0.07581987, 0.024836035, 0.02330374, -0.00798969},
			{-0.020455968, -0.011407022, 0.0029970198, 0.02816308, 0.014822582, -0.04343576, -0.03351869, 0.021129675, 0.029311847, 0.012473642, 0.024757678, 0.00034580834, 0.053155623, 0.03692337, 0.011871159, -0.02311204, 0.0022250642, 0.018103648, -0.022004073, -0.0014668264, -0.004562229, -0.015719522, 0.0139828585, 0.020718824, -0.03353106, 0.02471422, -0.0132452585, 0.01021389, 0.08487248, 0.0024891808, 0.03513792, -0.0056545865},
			{-0.060339678, -0.025177646, -0.025375877, 0.0021444343, -0.034543872, -0.014091132, 0.006954831, 0.025922462, 0.015881091, -0.028167656, -0.017126536, 0.007757702, 0.05022377, -0.036581744, -0.037200164, 0.02193756, -0.03859461, 0.01537367, 0.032091267, -0.024531268, -0.028265838, -0.040126137, 0.01843713, -0.027996667, -0.023678083, -0.037008584, 0.008217739, -0.0032729746, 0.09539325, 0.029082326, 0.006077923, -0.040795825},
			{-0.029519463, 0.03372332, -0.024881095, -0.041453898, 0.012929598, -0.04268701, -0.03372539, -0.03722939, 0.0095085045, 0.0029997348, 0.013537833, -0.0012667072, 0.0077807233, -0.03310182, 0.0060250363, -0.020290019, -0.04113657, 0.03333479, 0.016875625, -0.032442268, -0.0019164458, 0.01612608, 0.030013815, -0.026206102, -0.015040728, -0.04180252, 0.010575936, -0.035801493, 0.11906168, -0.0398952, -0.02980433, 0.013728268},
			{-0.01941948, 0.012215311, 0.008418494, -0.027651764, -0.041583683, 0.011146208, 0.0014007022, -0.0071306005, -0.032913815, -0.017799195, -0.018709373, 0.0024577817, 0.053889845, -0.003100317, -0.021226512, 0.00577922, 0.0073663015, -0.025727525, -0.007037493, -0.021528238, 0.034326836, 0.028639495, 0.004271669, 0.013372362, -0.023327809, 0.0061005186, 0.030769425, -0.020497026, 0.11339796, -0.042271204, 0.0076593272, -0.015442318},
			{-0.09325778, 0.029155511, 0.005875638, -0.0153601365, -0.034180835, 0.015968109, -0.010034274, 0.02705098, 0.0049214917, -0.036446042, -0.02447571, -0.01196894, 0.05347667, -0.004960552, 0.02706394, 0.00382789, -0.03464874, -0.03431057, 0.00178841, -0.03201878, 0.037938073, 0.014588295, -0.034929447, 0.019751824, 0.0153461285, 0.004742542, 0.028251655, -0.0060324706, 0.13687892, 0.028412633, 0.03601589, -0.009969053},
			{-0.027979212, 0.010306114, 0.0009291107, -0.02822269, 0.030854318, 0.0046847956, 0.016308008, 0.020179156, -0.035760272, -0.029105859, 0.016196366, -0.077844605, 0.0910045, -0.016381156, -0.028567757, -0.03781577, 0.024560895, -0.011185164, -0.023974165, 0.0006866437, 0.035464264, -0.01977866, 0.028219048, 0.017416816, 0.012113408, -0.029267559, -0.014346477, -0.02782263, 0.11272415, -0.032071304, -0.009677323, -0.023317201},
			{-0.08930748, 0.0023728644, -0.015863074, -0.024050878, -0.030762551, 0.012559398, -0.0016487698, -0.01250325, -0.04097923, 0.030535806, 0.005367068, -0.10093489, 0.060882766, -0.036593795, 0.01098906, 0.013109901, 0.029735414, 0.027721666, 0.008945094, -0.036672395, 0.021634866, -0.0012317721, 0.0023348269, -0.002859015, 0.017699694, -0.002299556, -0.011469683, 0.043367162, 0.16003618, 0.021389097, -0.016721763, -0.010887375},
			{-0.041759152, -0.006547864, -0.02966986, -0.008172917, -0.013136083, -0.03858309, -0.021953281, -0.023081008, -0.038217604, -0.0020917556, -0.040573053, -0.087383024, 0.08180888, -0.028284408, -0.037624814, -0.02581154, -0.013866068, 0.0049028806, -0.0021431162, 0.00835599, -0.001981873, 0.00039818548, 0.021252414, -0.0134270005, -0.017859226, -0.03610034, 0.025844831, 0.031171562, 0.18187813, -0.039130934, -0.024083957, 0.024937348},
			{-0.104011424, -0.0068790293, -0.043124426, 0.0046724193, 0.013745551, -0.04272587, -0.013456357, -0.03565301, -0.011852799, -0.043930728, -0.0338393, -0.095116444, 0.086229645, 0.0004837662, 0.007869818, -0.013066597, 0.023204582, -0.01534622, 0.01648706, 0.016828235, -0.007945022, -0.034393802, -0.0069184015, -0.031815536, -0.03399403, 0.0017764927, -0.04296323, 0.039887253, 0.1904594, -0.022920994, 0.0153801255, 0.008409785},
			{-0.058995564, -0.040307883, 0.015017944, -0.040463105, -0.0019542912, -0.022351786, 0.024574114, -0.035745263, 0.0028554143, -0.0339498, -0.008213875, -0.06312289, 0.108736254, -0.034288213, 0.0046732784, 0.014599844, -0.023483302, -0.002449952, -0.015495534, -0.030923132, 0.026091427, 0.013741937, -0.017516967, 0.00969743, -0.043279808, -0.048738264, -0.016515708, 0.008925639, 0.16164596, -0.017434886, 0.028310768, 0.02263523},
			{-0.067137145, 0.020034848, 0.01857562, -0.01177862, -0.014067946, 0.0026981363, -0.025609868, 0.037942387, -0.0061556753, -0.042204387, -0.017078212, -0.041476995, 0.10695838, -0.033018928, -0.031568635, 0.009806846, -0.019783203, -0.0023244992, -0.030535366, 0.030308215, 0.023402125, -0.033790626, 0.031350385, -0.00081693754, -0.019974865, 0.018489894, -0.024267642, -0.0059311586, 0.15020211, 0.01370729, -0.034944266, 0.026307477},
			{-0.10488121, -0.032931805, -0.029005753, -0.022930082, -0.0039721634, -0.014918553, 0.02454988, -0.0035888292, 0.0015365201, 0.012720129, 0.024545232, -0.016778043, 0.04307738, -0.0281533, -0.04252946, -0.02852385, 0.0049715233, 0.024548225, -0.030498313, 0.0014466048, -0.01646779, 0.013544479, -0.022797387, 0.0024027154, -0.029633911, -0.020781972, -0.024661908, -0.000531592, 0.13270302, -0.012443267, 0.036271185, -0.036487456},
			{-0.06853626, -0.026133778, 0.022365784, -0.022027662, -0.019982444, -0.0029953716, 0.026604982, 0.0012176558, -0.0130703915, 0.008711623, 0.01637752, -0.026300231, 0.04567288, 0.0055390894, -0.032944232, -0.009618077, -0.0398394, 0.033585414, -0.009934022, -0.01784708, 0.002359774, 0.008848817, -0.03442679, 0.018037766, -0.0074351425, -0.016029142, -0.028899265, 0.00038071757, 0.16596992, 0.0027395068, -0.007713482, 0.007009452},
			{-0.10171688, -0.023378404, -0.01917104, 0.015061715, -0.036345996, 0.01033556, 0.010136112, 0.024741061, -0.043736696, -0.013891603, -0.043424353, -0.017396685, 0.08036935, 0.014863562, -0.04028394, -0.033514872, 0.02608396, 0.021753587, -0.005084598, 0.023032889, -0.02304542, -0.008169125, -0.013468421, 0.036881827, 0.021433987, -0.037447885, -0.034438085, 0.0045765764, 0.12619214, 0.02552466, -0.0064117573, 0.0095589915},
			{0.1540195, -0.019389426, -0.030520728, -0.03173488, 0.0150799025, 0.019517213, 0.017420532, -0.02285463, 0.018735746, -0.016854385, 0.028636452, -0.13817579, -0.14059621, 0.007088743, 0.015873445, 0.008297288, 0.007211114, 0.011358213, -0.033201437, 0.00091455196, -0.013498917, -0.025641585, 0.015968272, 0.00047097728, -0.02652575, -0.02214488, -0.01624202, -0.028474119, -0.101066686, 0.024067597, -0.026577659, -0.0029690445},
			{0.17268835, -0.028237494, -0.004639373, -0.015536987, 0.013123628, 3.3861957e-05, -0.0014564235, 0.021561876, 0.03067106, -0.030365223, -0.0088033145, -0.14748704, -0.09436808, 0.025499202, 0.012140962, -0.013684728, -0.004587001, -0.032740913, 0.020543406, 0.0044180155, -0.019746043, 7.464465e-05, -0.0047387867, -0.011748338, -0.006588472, 0.03237957, -0.0018290271, 0.023128424, -0.06128621, -0.012403034, -0.027058817, -0.038680457},
			{0.13793604, 0.011377203, -0.021891948, -0.02952616, -0.030986452, -0.003236459, -0.022937482, -0.03807966, 0.016154813, 0.034673057, -0.03571305, -0.107423805, -0.09218876, 0.030418716, 0.020526227, 0.025989959, -0.021634962, 0.026364505, -0.00015855626, 0.028331619, 0.02301187, 0.0007250824, -0.01913637, 0.020266995, 0.0007518612, 0.021912582, -0.008256973, -0.016266981, -0.107967064, -0.00030790572, -0.012636222, -0.023191318},
			{0.086040415, -0.0047906833, 0.013318457, -0.037194982, -0.0076608513, -0.017458323, 0.02192629, -0.0149349235, 0.0242969, 0.0033313204, 0.0037931984, -0.09202216, -0.13191283, -0.018341897, 0.016674438, -0.036292147, 0.007051378, 0.0145809725, -0.007746771, 0.019202342, -0.0047438107, -0.013814717, 0.03128944, 0.02149583, -0.027168846, 0.036056075, -0.02280492, -0.03027537, -0.038728986, 0.026165074, 0.0068554394, 0.024358861},
			{0.12469643, -0.041388743, -0.0026589108, -0.016258487, -0.03932503, -0.008635575, -0.036454793, 0.032123893, -0.021067526, 0.041678946, -0.015726238, -0.09215967, -0.12569387, 0.00413768, 0.009771469, 0.024118906, -0.026074756, -0.032776583, -0.013827603, -0.021769218, -0.012442131, 0.0077192783, 0.022858473, -0.005363576, -0.007986328, 0.027409548, -0.009305981, 0.008534477, -0.08704212, -0.03456412, -0.01686735, -0.014355003},
			{0.076379195, 0.030822938, -0.007364756, 0.02480891, -0.018253021, -0.005269947, -0.031592414, 0.028412737, 0.020665823, 0.0045933956, -0.021498414, -0.050338157, -0.1294094, 0.002439946, -0.011556982, -0.02163695, 0.028643379, -0.007609997, -0.029531974, -0.018981481, 0.0038692877, 0.031366132, 0.030383999, 0.020164192, 0.0147876525, 0.01911175, 0.009451795, -0.028864281, -0.06727897, -0.032222006, -0.03502577, -0.02442245},
			{0.123607606, 0.0024582848, -0.0014707457, -4.5830666e-07, 0.02119183, 0.011849296, -0.01645425, 0.00068635866, -0.04228776, 0.04342248, -0.0047998037, -0.083390824, -0.113987274, -0.003762558, 0.004574584, 0.020232284, -0.03041737, 0.0074516535, 0.0026308792, 0.036061373, -0.035250694, 0.022982901, 0.02514952, 0.031031452, -0.027854519, 0.00479174, -0.00023688834, -0.02950847, -0.09045266, -0.003719895, 0.034576915, -0.038541857},
			{0.06997982, -0.0015061656, -0.0400249, 0.0125274435, 0.015063477, -0.01649167, -0.022511331, -0.018481767, 0.012860468, -0.017151034, -0.03592607, -0.03542339, -0.12189939, 0.028655611, -0.0038506929, 0.03050519, -0.014789597, 0.03059087, 0.006455957, 0.004277719, 0.017803144, -0.015353714, -0.043345246, 0.0042165928, -0.019004023, -0.012755732, -0.02506994, -0.031761184, -0.09421088, -0.037678007, 0.009853896, -0.041308954},
			{0.10005072, -0.008232916, 0.015841238, 0.027955297, 0.009843838, -0.03215903, 0.025271328, -0.00060232356, -0.0095043825, 0.008627708, 0.023488693, -0.020441879, -0.14101192, -0.01526355, -0.033891007, -0.020199722, 0.008904044, 0.016709208, 0.008952466, 0.017470183, -0.008313978, -0.017435461, -0.04084489, 0.019333519, -0.02194371, -0.023262912, -0.03792931, -0.029782265, -0.09481476, -0.037509225, -0.0042544343, 0.016281247},
			{0.08235176, 0.020620272, 0.026748335, -0.0017751018, 0.023516217, 0.032138355, -0.01898631, -0.019726373, 0.028901456, -0.011318784, -0.02920752, -0.09365907, -0.10783923, -0.037854474, -0.027004573, 0.015099633, 0.028130988, 0.008611772, 0.020307194, 0.027968919, 0.02639857, -0.011039473, 0.021264277, 0.011574317, -0.03977956, -0.023240233, 0.017698519, -0.03585676, -0.05010025, -0.026295703, -0.017032826, -0.033069596},
			{0.11243966, -0.0058744345, 0.028116433, -0.029469375, 0.002434319, -0.02747355, 0.023778927, -0.031953063, -0.0057102307, 0.018749516, -0.032048807, -0.09876698, -0.10189538, 0.034346618, -0.037998706, 0.017215926, -0.037179194, -0.034919605, -0.03227633, 0.008051059, -0.03576376, -0.0010254619, -0.03113146, -0.0017510988, -0.035997994, 0.03138427, -0.016143128, -0.012756882, -0.0037998501, -0.04287749, 0.014023133, 0.018372701},
			{0.054304697, 0.0148162525, 0.0022842542, 0.018378653, -0.0018633864, -0.029459706, 0.0075250682, -0.0028870814, -0.014650519, 0.03917321, -0.014261444, -0.09539313, -0.045854762, -0.01678598, -0.03907948, -0.008129699, -0.038085993, -0.031260587, -0.008346845, 0.014605113, -0.017666528, -0.034491558, -0.019880034, -0.003935218, 0.0056587295, 0.009219968, -0.028458921, -0.0025028007, 0.011061205, -0.011663943, 0.017295524, -0.0030405386},
			{0.07257678, -0.027251638, -0.0046550604, -0.033488825, -0.042373147, -0.037859797, 0.016940612, -0.026335102, 0.014741598, -0.007917653, 0.021152973, -0.052241724, -0.0512935, 0.019859064, 0.008071115, -0.009025918, -0.0036374554, -0.03345432, -0.0066864067, 0.007365433, -0.025698137, 0.014402494, -0.0041816235, 0.0012654923, -0.007573737, 0.03338526, -0.01258021, -0.04301796, -0.00015159584, 0.025058946, -0.033627227, 0.029619869},
			{-0.0025270549, 0.0031372989, -0.019014139, 0.016211882, -0.033950225, 0.00915419, -0.043149192, 0.007956918, 0.030672131, 0.009012594, -0.04357778, -0.05669667, -0.05102082, -0.030993626, 0.02732233, 0.0140216565, -0.041855525, -0.022563025, 0.021780493, 0.030897187, -0.010470901, 0.017248657, 0.025628773, -0.018001227, -0.009523118, -0.02679386, -0.011999679, -0.021423768, 0.06945568, 0.01806083, 0.008308787, 0.02967521},
			{0.035053473, -0.0007577258, -0.03511403, -0.019622818, 0.025176251, 0.023890514, -0.03482222, 0.004632443, 0.01475984, 0.022175573, 0.0037735282, -0.022971354, -0.08295673, -0.038100883, -0.029757807, -0.033839382, -0.013955371, 0.019078765, -0.03363956, 0.032124475, 0.010601964, 0.0019172628, 0.0088174995, -0.025886748, -0.03293167, -0.016964316, -0.040687986, 0.02365669, -0.017473169, -0.0058442415, -0.0051488616, 0.018043468},
			{0.04382817, -0.042188793, -0.03731116, 0.022913594, 0.0038636108, 0.00665779, 0.0041470304, 0.03524845, -0.02747086, 0.025602473, 0.011600268, -0.026254768, -0.07093982, 0.008005321, -0.032680854, -0.008445006, 0.015382673, 0.029150583, 0.0045034825, -0.0018802176, 0.029841967, 0.00995586, -0.011079294, -0.015301654, -0.019188704, -0.016245559, -0.020835506, -0.02442294, 0.035984587, -0.0108958455, -0.03557107, -0.03699476},
			{0.02575008, 0.020711975, -0.00688849, -0.0058627445, 0.0070199473, 0.0036448052, 0.013508046, 0.006306473, -0.022335632, 0.040974922, -0.024695044, 0.005321712, -0.07036095, -0.0065366738, -0.009998643, -0.03442486, -0.034668375, 0.015381496, -0.021575395, -0.024208497, 0.035883322, 0.020228574, -0.030614933, -0.0010375082, 0.01044107, 0.012347819, -0.04054856, 0.014585555, -0.017135136, -0.026738524, 0.007002119, -0.022755196},
			{0.016475825, -0.015850155, 0.023053024, -0.030907141, 0.021376794, 0.026772212, 0.0022671947, -0.022694554, 0.03176872, -0.013113783, -0.033788174, 0.042590905, -0.032218203, 0.013189524, -0.0027033794, -0.039267905, 0.011967908, 0.035600953, -0.004512141, 0.011062294, -0.009807285, -0.01743829, 0.013196637, -0.004840497, -0.03720206, -0.0048394953, -0.021602543, -0.019299524, -0.0028102878, -0.00019386083, 0.037517004, 0.0019394417},
			{0.018124457, -0.03524104, -0.007766485, -0.017325543, -0.026032355, -0.04179379, -0.029340563, -0.028136693, 0.00036310006, -0.016652323, 0.0050347536, -0.0077144345, -0.0057540373, 0.005807098, 0.003025848, 0.014997667, -0.021213846, 0.00080160424, 0.0014377959, 0.008383439, 0.0066051483, 0.020542037, -3.1040876e-05, 0.025541887, -0.011735984, -0.041317645, -0.02855696, -0.012554924, -0.039148483, -0.0026934159, -0.030632667, 0.024912572},
			{0.033947114, 0.03175144, 0.009090336, 0.0082367845, -0.012446599, -0.01260343, -0.029256204, 0.013890952, -0.0026522214, 0.031403765, -0.03851339, 0.00012707958, -0.05687996, -0.027361222, 0.011977831, -0.030999234, -0.0021152291, 0.010632332, -0.013969032, -0.03336086, -0.01187212, 0.011100745, -0.0007982429, -0.023919534, -0.0069142794, -0.01222216, -0.029587245, 0.030894382, -0.017971972, 0.014667099, -0.0027054064, -0.034993257},
			{0.039025895, 0.0043666754, -0.038485687, -0.036202673, -0.035709273, -0.004314392, -0.008666135, -0.00249983, -0.010277162, -0.012884871, 0.01794752, 0.039188106, -0.03443186, -0.031023994, 0.0022642843, -0.03583043, 0.0032242963, 0.0341566, -0.025625784, -0.0270731, -0.02658911, 0.031198082, -0.03024941, -0.019272191, -0.043438286, -0.028713824, -0.04250513, 0.027786694, -0.051377412, 0.008914741, -0.0037028044, -0.0056905877},
			{0.0010750736, -0.034963608, 0.009190446, 0.023981586, -0.03087024, 0.018320799, 0.029508134, -0.034934122, 0.0064199474, 0.040622406, 0.005185234, 0.012748438, -0.06553755, -0.0151574835, 0.017908987, -0.002233311, 0.012438588, -0.01931694, -0.021553962, 0.027782988, -0.008725429, 0.012656006, -0.023925176, 0.024165653, -0.017590726, -0.020147435, -0.025492942, 0.0012174513, -0.017178841, -0.03872273, 0.027735025, -0.03967175},
			{0.0054849857, -0.036604483, 0.009195206, -0.043758288, -0.009146313, -0.016848598, -0.011864981, 0.019414991, 0.022656795, -0.008443948, 0.014266572, 0.017597226, -0.054432508, 0.010407291, 0.01444148, 0.009017922, -0.011726396, -0.01744255, -0.026619252, -0.0010130756, 0.0068791434, 0.008292248, -0.026476625, 0.024959795, 0.011592028, -0.043090202, -0.0018165004, 0.02279372, -0.039613426, 0.016033133, -0.013291737, -0.02403338},
			{9.762916e-06, 0.021576032, 0.00978254, -0.015949976, -0.030789338, 0.02225091, 0.021932008, 0.025502339, 0.014696173, -0.0012414951, -0.013277224, 0.00056073023, -0.047593534, -0.030008402, -0.009791659, 0.017787892, -0.03397408, -0.028648011, 0.013775842, 0.0042935195, -0.0031199679, 0.00043069446, 0.02839127, -0.023634292, 0.016959943, -0.022436278, 0.00808186, 0.01866498, -0.006539116, -0.04069273, -2.1532178e-05, 0.009558208},
			{0.030293792, -0.0300943, -0.026448425, 0.020055616, -0.0005390326, 0.003958761, -0.00884005, 0.011615228, 0.0027876224, 0.017737102, 0.023354644, 0.036997307, -0.054108072, 0.02324332, 0.025454469, 0.025469678, 0.0138297295, -0.013322607, -0.029359935, 0.022328516, 0.02991575, 0.02588038, -0.014582135, -0.0019497611, 0.006932936, -0.019605108, -0.030825425, 0.0013399916, -0.021410897, 0.02075194, -0.016145634, -0.03476674},
			{0.049075246, -0.021633634, -0.040095024, -0.040646877, 0.018250242, 0.0046056034, 0.0063694566, 0.03549222, -0.019952493, 0.0032890404, 0.012305015, 0.002161296, -0.013480746, 0.007978555, 0.0024290036, -0.022775952, 0.015041831, -0.014012581, 0.016779184, -0.040828764, 0.03451042, -0.007877252, -0.029938487, -0.0014993064, -0.010798196, -0.019716615, -0.037073027, -0.038199656, 0.04589148, -0.019814162, 0.00040352345, -0.020381516},
			{0.041560333, -0.020219723, -0.020874158, 0.007525624, -0.010295102, 0.025499739, 0.024860078, 0.03612463, -0.033712547, 0.016867857, -0.040047366, -0.031365234, -0.03297465, -0.010902457, -0.029249644, -0.010332852, -0.006422157, -0.028349508, -0.009002591, -0.012680885, -0.027251098, -0.0155093195, 0.017410329, -0.009538278, 0.027113654, -0.038198885, -0.0189181, 0.0127367955, 0.044263463, 0.023296151, 0.0054022, 0.003994157},
			{0.012389328, 0.011887057, -0.030613648, -0.0176738, -0.023639364, 0.022026202, 0.0054454845, 0.01629147, 0.027146017, 0.008633555, 0.025314609, -0.009456534, -0.043980908, -0.024987193, 0.018102577, 0.023513937, -0.041963696, 0.02431826, -0.018447356, 0.014401017, -0.02131422, -0.027555155, 0.02221185, -0.014925979, -0.043315977, -0.036156297, -0.03785484, -0.021283817, 0.004989394, -0.030835375, 0.004943084, -0.013657781},
			{0.05313347, 0.013741702, -0.012757943, 0.023933407, 0.004459204, -0.008235047, -0.028148519, -0.021522246, 0.024429787, 0.033845995, 0.02169965, -0.051601045, -0.012449428, -0.025433166, 0.022293543, 0.03490399, -0.024277722, 0.017934762, 0.0067407656, 0.023126997, 0.0328449, 0.027999884, 0.0003815833, -0.035427816, 0.015465584, -0.032330707, 0.02806, -0.014490237, 0.0375296, 0.028880717, 0.002286002, 0.024179168},
			{0.013052096, -0.010191945, 0.009827462, 0.016485872, -0.041195408, -0.03497074, -0.0066861454, 0.0013234764, 0.01073417, 0.034338824, 0.011318213, 0.015019224, 0.039632108, -0.024014313, 0.030972, 0.01039238, 0.024461228, 0.0067708604, 0.022949068, -0.034610137, -0.035577875, -0.02821017, -0.01842422, -0.009692265, 0.019923955, -0.04118988, 0.014137535, -0.004391952, 0.009435903, -0.006853175, -0.0058186688, -0.021833656},
			{-0.0146040525, 0.028639669, 0.0106922, -0.04349899, -0.032724645, 0.018433614, -0.016865812, 0.00013240054, -0.023014223, -0.012050462, 0.023768973, -0.039535046, -0.037239857, -0.009727897, 0.012173081, -9.849464e-05, -0.033876464, -0.018954236, -0.043626025, -0.024826512, 0.02856236, 0.029745234, -0.0014756095, -0.02950368, -0.0198375, -0.025774103, 0.026290353, -0.041924253, -0.008795148, 0.008978456, 0.009388883, -0.0038753953},
			{-0.025442246, -0.038774703, -0.030111236, -0.039929457, 0.0061053536, -0.0325853, 0.027916344, 0.024467401, 0.010727037, 0.042080164, -0.012286379, 0.024387911, -0.031130925, -0.017717667, 0.021709127, -0.00035612402, -0.0021000153, -0.008980021, 0.013651347, -0.026646309, -0.008155491, 0.024292553, -0.025030516, -0.031770676, 0.010722912, 0.024565734, 0.0011665209, 0.012406602, -0.034378976, 0.024918815, -0.011891263, 0.0008792706},
			{0.019939475, 0.0326095, 0.0023883968, 0.012285303, -0.0045555937, 0.00464377, -0.028986743, -0.034734003, -0.041545033, -0.031397868, 0.026323628, 0.05578743, -0.022490712, 0.021867532, -0.0023766665, -0.039629903, -0.026112841, 0.025943704, 0.010900192, -0.019743193, -0.03267777, -0.030982967, 0.028929228, -0.016035568, -0.03157113, -0.0028427409, -0.0035775094, -0.0031400074, 0.03166326, 0.018134175, -0.019225935, 0.0101774},
			{0.012637254, 0.014575917, -0.029770782, -0.00029022025, -0.0017143624, -0.022465562, 0.0060603786, -0.0048884265, -0.004877534, -0.0005430665, -0.02714119, 0.038121637, 0.0035456403, -0.020653669, -0.036774877, 0.03530369, -0.039538193, 0.0096851215, 0.028394286, 0.010098229, -0.0051526986, 0.0036983206, -0.03374627, -0.0066834018, -0.035652656, 0.013476307, 0.02918304, -0.006372348, 0.007955897, 0.009782465, 0.027263679, -0.030965233},
			{-0.025663879, 0.012849964, 0.011497899, -0.012177193, 0.027652398, -5.936698e-05, 0.021511372, 0.0017794296, 0.003284779, -0.024480922, -0.016033268, -0.057497535, -0.003200963, -0.022424964, 0.008085372, -0.032086436, -0.0352672, -0.012898939, -0.035608865, 0.010547311, -0.004961662, 0.01829212, -0.027430382, 0.01562098, 0.029020136, 0.0013743191, 0.026943339, -0.0124074975, 0.051020034, 0.006118135, -0.037830222, -0.039444942},
			{0.047528625, 0.021122267, -0.0057508047, -0.04182212, 0.0057000974, -0.023610732, 0.02455112, 0.0053708777, -0.013406373, 0.043344542, -0.004377399, -0.053880706, 0.022040572, -0.029505543, -0.027519416, 0.0010717433, -0.029897835, 0.029958062, -0.0064073745, -0.037961315, -0.0027108602, 0.030350378, 0.009606019, -0.03374338, 0.01213058, -0.003747035, -0.0001908148, 0.005671451, 0.054533057, -0.044071186, -0.008246588, 0.01893149},
			{0.013612043, 0.0064298403, 0.030805133, 0.021636661, -0.026712142, 0.022984428, 0.011278503, -0.02944477, -0.03214037, -0.0018172227, 0.03140766, 0.0050228317, 0.042848956, -0.025414014, -0.0005438232, 0.025779473, 0.0040757023, -0.034960646, 0.013356819, -0.028208382, -0.008924337, -0.04017128, -0.026345361, -0.012439158, 0.002637709, 0.014501129, 0.0120833125, 0.013586303, 0.03811762, -0.038017843, -0.010501614, -0.035678398},
			{-0.035334103, -0.03877247, -0.014630697, -0.04043002, -0.025144543, -0.003904333, 0.016755188, -0.031992957, -0.026786977, 0.038359273, -0.01624818, 0.005517703, -0.0016543596, 0.022504624, 0.003451596, 0.0079109855, 0.01746673, 0.020326797, -0.0024980986, 0.0043096817, 0.01777386, 0.015469163, -0.031540673, -0.025317974, -0.011199598, -0.011291358, -0.035497613, -0.010002495, 0.023210865, 0.021325136, -0.016437657, 0.009999132},
			{-0.0059098797, -0.013357788, -0.016137477, 0.009195849, -0.03660853, -0.038142517, -0.036078192, 0.012167942, 0.0034911751, 0.038870692, -0.018981287, 0.039087098, -0.012153094, 0.029869862, -0.034222778, 0.0017316348, -0.03409732, -0.037424825, 0.01793282, 0.0015906496, 0.031391114, 0.0031972378, 0.01361153, -0.011035867, 0.025823567, 0.02176453, -0.029655023, 0.0025174045, 0.023671906, 0.006498157, -0.03131047, 0.012035936},
			{-0.02137047, 0.0064088143, -0.004879732, -0.009538854, -0.026770022, -0.021105811, -0.0026756248, -0.012442449, -0.01610167, 0.03681633, -0.034162458, -0.052296907, 0.0318708, 0.013356131, -0.014741149, -0.018131696, -0.042799305, -0.0064674206, -0.023656169, -0.035446364, -0.033576768, -0.014697581, 0.015065514, -0.02742373, -0.009212958, -0.0032211242, 0.010768419, 0.025848638, 0.0815806, -0.041922938, 0.007363677, -0.042101186},
			{-0.041973807, 0.0013269538, -0.040435445, 0.024125436, 0.018390734, 0.024464572, -0.0042244866, 0.021971546, -0.011142991, 0.022275629, -0.0048247464, -0.020108158, -0.015011628, 0.010886889, -0.012340207, 0.025233462, 0.020567501, 0.025456093, 0.001656384, 0.022660114, 0.0073219016, -0.033241723, 0.006132997, 0.03398621, -0.018359803, -0.039769605, 0.009492705, 0.022715062, 0.02696034, 0.029137917, 0.0066300184, -0.02933471},
			{0.023876108, 0.020824073, 0.023562508, 0.022397865, 0.015655505, 0.026971703, -0.03147377, 0.009024207, 0.025842756, 0.013347542, -0.010524943, -0.0046739434, 0.02150331, 0.02823338, -0.028404057, 0.011478951, -0.04048662, 0.011453044, 0.029869447, -0.033799294, 0.02979254, -0.030846715, -0.014101142, -0.03159734, -0.02326364, -0.003495283, -0.020256562, -0.011312076, 0.06895531, 0.019098293, -0.019836675, -0.012461411},
			{0.011066786, 0.003397208, 0.0039732284, -0.0014564678, -0.035250816, -0.0023356928, -0.028380485, 0.016916405, 0.006909132, 0.0356351, 0.02075406, 0.023620881, 0.04346652, 0.017564453, -0.00390969, -0.010309112, -0.04076213, -0.025403842, -0.0067428425, 0.008998053, -0.026534684, 0.027116176, 0.0022499368, 0.009824619, 0.022329107, 0.014720832, -0.016674185, 0.024822973, 0.040776324, 0.025113152, -0.030225035, -0.009584794},
			{0.014057566, -0.023476768, -0.0076041208, -0.03953707, -0.0308917, -0.0345926, -0.0046761567, -0.028612234, 0.0015611381, 0.010870417, 0.024208168, -0.017977092, 0.03829537, -0.009122355, 0.023540732, -0.036114905, -0.0250529, -0.0311021, -0.02035138, 0.020510655, -0.010879179, -0.00670091, 0.022835642, 0.035369605, 0.0024645603, -0.008556551, 0.013922838, -0.033402883, 0.008956695, 0.016168095, 0.008492582, -0.023891136},
			{-0.008609502, -0.025717435, -0.003888357, 0.020190382, 0.027636329, -0.0073221107, -0.028992105, -0.024921939, 0.021573383, 0.02035388, 0.012172255, 0.029669425, 0.014834804, -0.0045358576, 0.009817352, -0.0260556, -0.022396192, -0.030346952, -0.028619088, 0.009176878, -0.03729276, 0.029541409, -0.0153666, -0.032237984, -0.040160056, 0.017529782, 0.00064455793, 0.006485041, 0.012102239, -0.022181636, 0.0074726604, -0.0413629},
			{9.7487406e-05, -0.00040458902, 0.014911713, 0.016905895, -0.03335533, -0.034407962, -0.018155102, -0.020993521, -0.008889911, -0.0251375, 0.010229286, 0.019220876, 0.035760064, 0.008985229, -0.0023870717, -0.017005049, -0.026858967, 0.0019561872, -0.038398046, 0.030722829, 0.02726622, 0.0050156126, 0.010788159, -0.021923862, 0.0019688744, 0.009393611, -0.043358263, 0.009636453, 0.011587061, -0.0146451555, 0.010005556, -0.0308865},
			{-0.008614525, 0.030820882, 0.02574152, 0.006121229, 0.008437481, 0.018424671, 0.023469508, -0.020661868, -0.016791927, 0.030016001, -0.014943437, 0.040757805, 0.0064205113, -0.023638565, 0.007670492, -0.038675904, -0.00045249262, 0.02534885, 0.030308472, 0.012883699, -0.0005879812, 0.0069242045, -0.03108678, -0.022742875, -0.006233508, 0.004711574, -0.0045974185, 0.029101465, 0.015551962, -0.005292825, -0.020689528, 0.013539315},
			{0.01702766, 0.029426312, 0.020681435, -0.031851985, -0.0344678, -0.014690323, -0.02265953, -0.031435035, -0.004912097, -0.017475784, 0.027769, -0.016553203, 0.03679991, -0.011493683, 0.003947349, -0.015958156, -0.03993375, 0.035780013, 0.02416858, 0.010625631, 0.0036461018, -0.006806414, 0.011926967, 0.0020209327, -0.044080112, -0.010150251, -0.0004934713, 0.006285963, 0.04740491, -0.020150373, -0.019200312, 0.01600509},
			{0.01985946, -0.010926721, -0.0005285029, 0.019810788, 0.027762227, 0.028398829, 0.007330686, 0.03629774, -0.001415273, 0.013202968, 0.028305143, 0.03371241, 0.037988983, -0.013409512, 0.022116425, 0.025098618, -0.043654677, 0.024886332, -0.011318957, -0.032316383, -0.031065805, 0.019045735, -0.03319256, -0.021719037, -0.02742972, 0.027833397, -0.036147084, -0.030378614, 0.01589406, -0.036344644, -0.033085763, 0.03148426},
			{-0.043765064, 0.01299547, -0.034057554, -0.0056605414, -0.019263674, 0.0129682245, -0.00010604614, -0.023075037, 0.02955568, -0.029428925, 0.009226795, 0.031869344, 0.06308944, -0.01508473, -0.005886368, 0.02956903, -0.03609534, -0.026211847, 0.0047289156, 0.02502159, 0.022030648, 0.007096045, -0.0197499, 0.0072391927, -0.010305166, -0.041798677, 0.0042999033, 0.015318903, 0.030540148, 0.008935284, -2.8703362e-05, -0.043816205},
			{-0.012521108, 0.032091442, 0.017756568, -0.030005233, 0.01229819, 0.024714872, -0.005270525, -0.009295121, -0.006476159, 0.017991444, 0.02587795, -0.03505564, 0.01497487, -0.024013584, -0.020977305, 0.015142833, -0.00797284, -0.01466996, 0.017776433, -0.042176776, -0.007068537, -0.006884574, 0.023663616, 0.02255651, -0.041280624, -0.018140832, 0.006300762, -0.014923521, 0.098505184, -0.012201838, -0.027843425, -0.023803553},
			{-0.05318835, -0.040755607, -0.024667198, -0.011802062, 0.007107066, 0.013980725, 0.019482447, 0.0074095987, -0.013250609, 0.017429564, -0.03192454, -0.03016426, 0.03264141, -0.027271733, 0.00945682, -0.029683828, -0.03107403, -0.03705424, -0.0048343753, 0.027461983, 0.029677957, 0.021005027, -0.01701338, -0.03400279, -0.011568579, 0.02060961, -0.016989665, -0.017432839, 0.035177477, -0.019471746, 0.00038680062, -0.0009904681},
			{-0.008662235, 0.016535526, -0.021876967, -0.028625868, 0.01155484, -0.008577138, -0.011427928, -0.028508158, -0.03904373, 0.008741395, 0.0029599862, 0.025298672, 0.00519169, 0.03457074, 0.003798333, -0.024693677, -0.034749772, -0.037483778, -0.02751662, 0.0072491583, -0.0077289604, -0.041339286, -0.013424862, 0.012984656, -0.017099595, -0.02818244, 0.0072950274, 0.018147212, 0.058721494, 0.0126323, -0.007442983, 0.009883597},
			{-0.076660514, -0.022209886, 0.023622947, -0.042393994, -0.004867308, -0.0387401, -0.0026641102, -0.032561094, -0.030057207, 0.006869124, 0.0016407287, 0.0019700034, 0.0372644, -0.028335601, 0.021000821, 0.008937821, 0.015414237, -0.027372472, -0.020845357, -0.0011116989, -0.020384153, -0.031254016, -0.031480707, 0.0005643666, -0.03263166, 0.01953007, 0.00844094, -0.015582619, 0.06058665, 0.014807397, -0.010219909, 0.010258018},
			{-0.013563996, -0.021433558, 0.024609739, -0.012688738, -0.035504516, -0.020171735, -0.02208435, 0.022534076, 0.018587051, -0.007242499, 0.022864347, -0.0034240016, 0.053895403, 0.0024230294, 0.025902674, 0.0072967107, -0.029014057, -0.0024595596, -0.006132974, -0.0097327195, -0.02240224, 0.0044311075, 0.031665295, 0.027346723, -0.037415322, 0.0015196371, -0.026458472, -0.005146935, 0.109081805, -0.0017340764, -0.01586962, -0.0022948273},
			{-0.078830786, 0.022681879, 0.0065757483, 0.012742489, -0.035775725, 0.029277513, -0.0040254258, -0.024269868, -0.02214594, 0.035819516, 0.006650839, -0.020874582, 0.07013573, -0.018452818, -0.01847594, 0.0020246452, -0.015753116, 0.024699688, -0.032145686, 0.025584694, -0.036889274, -0.00036582415, -0.042515315, 0.010389466, -0.042601876, -0.009268879, -0.027805284, -0.03516599, 0.10954252, -0.00992284, 0.026228406, 0.015529994},
			{-0.055169683, -0.008985569, 0.019668192, -0.0069408114, -0.03380167, 0.0010231496, 0.012783695, 0.029580161, 0.013955294, -0.027321031, 0.027264884, -0.04838042, 0.09875394, -0.010234753, 0.017711107, 0.018798023, -0.005547402, 0.03229163, 0.026350673, -0.036773555, -0.004472539, 0.015249455, -0.016601175, 0.006100375, -0.013332021, -0.017055376, 0.023317253, 0.02302205, 0.13933577, 0.004730118, 0.021010019, -0.021355724},
			{-0.048953697, -0.023170134, -0.02722125, -0.0044135214, -0.037035696, -0.009121509, 0.029569093, -0.029255435, -0.03769673, 0.016925221, -0.029376324, -0.07785631, 0.10647751, -0.026572969, 0.024765143, -0.017337814, -0.037960146, 0.002611585, 0.04102047, -0.029826159, 0.015090901, -0.026237048, -0.04228645, -0.029663123, 0.029192742, 0.010329046, -0.024086127, 0.016962266, 0.177072, -0.03196969, -0.025829263, -0.03719047},
			{-0.08596563, 0.026633319, -0.0075338976, -0.0044726306, -0.038078178, 0.017660372, 0.017630931, 0.02956678, -0.019179683, 0.027053172, 0.030639865, -0.07935486, 0.11137182, 0.029958114, -0.02770967, -0.003260184, -0.026248563, 0.019688904, 0.016792936, -0.011234255, 0.016463216, -0.0075795995, -0.010123651, -0.018365866, -0.03940033, -0.0036266195, 0.011090268, -0.014071167, 0.15715297, -0.032841414, -0.008767551, 0.018849839},
			{-0.04205807, 0.02437805, -0.040230144, 0.01758118, -0.021439558, 0.02473529, -0.023118764, 4.6338886e-05, 0.030802483, 0.016839769, -0.0021256972, -0.042828053, 0.0697557, -0.018226458, -0.011919012, -0.00785078, -0.028065875, -0.030179158, 0.039953407, 0.023285298, -0.008379143, -0.030841365, -0.017559422, 0.020711143, -0.025012972, -0.044321656, 0.0009754711, -0.032743156, 0.19251628, 0.010666594, 0.012631703, -0.018262861},
			{-0.071765706, 0.030412437, -0.00664475, -0.03709277, -0.02779572, 0.014177621, 0.01629189, 0.02343142, -0.009260257, 0.0035252313, -0.012631128, -0.058466233, 0.108476326, 0.020806674, -0.0085451165, 0.032104667, 0.015736071, -0.02027506, 0.019767549, 0.0034289514, 0.026522286, -0.03216793, 0.010714036, 0.008156527, -0.0032157062, -0.038572542, -0.010543558, 0.031170988, 0.16149212, -0.029322993, -0.010590766, -0.006482397},
			{-0.06374167, -0.03638264, -0.02329003, -0.032280874, -0.040935844, -0.03383986, 0.019081183, -0.031229964, -0.014113699, -0.008334726, 0.008958387, -0.030964237, 0.09538704, -0.0032686107, 0.0004114035, 0.0338317, -0.02673796, 0.021387655, -0.009959919, -0.0141839795, 0.020797793, -0.022350987, -0.019321915, -0.012805017, -0.017309336, -0.030583281, 0.0043349145, 0.016446423, 0.10502875, -0.0018690684, -0.0019322261, -0.006175366},
			{-0.10131527, -0.040068444, -0.0034712, 0.025647897, -0.041364014, -0.013724115, -0.02010433, 0.017581396, -0.008486351, -0.027536247, -0.03399817, -0.07194163, 0.07564196, 0.01057823, -0.037505887, -0.033912446, -0.0044613387, 0.03234715, -0.0048247115, 0.010463052, -0.007340925, -0.0123347305, -0.029540548, -0.029933512, 0.005837256, -0.0019497673, 0.011135338, 0.0046522715, 0.14908467, -0.040199224, -0.007840373, 0.010324606},
			{-0.08028237, -0.03473054, -0.00196203, 0.0071767867, 0.019117909, -0.008410167, -0.021562496, -0.030656664, -0.003400342, -0.016613893, -0.042705193, -0.048592836, 0.06669798, 0.03675218, -0.030500721, 0.01073405, -0.020857962, 0.027720086, 0.022316644, -0.025986666, -0.021196075, 0.0046707294, -0.036875185, -0.03294563, -0.009934194, 0.015566314, -0.038487643, -0.0024374544, 0.10867565, 0.015632652, 0.017791472, -0.01081799},
			{0.17368546, -0.024396725, -0.004816078, 0.0008794954, -0.041264355, -0.036980957, 0.0075734197, 0.024753943, 0.008921278, 0.004144178, -0.0018494697, -0.116425075, -0.06844318, -0.01814915, -0.015067889, 0.020031286, 0.024746045, -0.017161308, -0.043062538, -0.0025272048, 0.017728575, -0.024740651, 0.0047260025, 0.020740304, 0.02286933, -0.015000043, -0.040106297, -0.0015594698, -0.04122676, -0.03168666, 0.0060969368, -0.003842827},
			{0.118214644, 0.028314939, -0.014237319, -0.006806713, -0.0010068584, -0.039241992, -0.0061482755, -0.014764676, -0.0047206725, 0.007885161, -0.026941886, -0.1331314, -0.111334264, 0.012474336, 0.010366679, 0.027978685, 0.015577692, -0.0064210556, -0.033856124, -0.031064916, 0.0069387257, 0.028950738, -0.02884676, 0.00073808804, -0.0003204667, 0.024060873, -0.023771102, 0.011604375, -0.06891394, -0.011176014, -0.028191939, 0.0286233},
			{0.08578804, 0.024996804, -0.0027082672, 0.016248574, 0.027004829, 0.011034555, -0.03349138, 0.03385646, 0.029471152, -0.007639367, 0.0013129736, -0.11313473, -0.092890956, -0.02916591, 0.01852377, 0.017082, -0.0144787505, -0.0032768622, -0.010916036, -0.019303365, 0.035054706, -0.018974742, -0.024297133, -0.011447016, 0.0047590043, -0.032715816, 0.007026473, 0.010700137, -0.0659738, -0.018977547, -0.015230136, 0.014507585},
			{0.09879591, -0.027509782, 0.007880003, -0.018838616, -0.031059774, 0.017202828, -0.03344126, 0.016699966, 0.020185383, 0.029334549, -0.040532142, -0.045905277, -0.109011695, 0.016660642, 0.0011106769, -0.008905464, -0.03714229, 0.026292138, 0.005732913, -0.03515673, -0.023359433, -0.036296934, 0.0010385368, 0.0127973445, -0.023484275, -0.00047594434, -0.043488115, 0.011106075, -0.03519583, -0.024713822, -0.015425919, -0.03620672},
			{0.059720192, -0.034572933, -0.013860114, -0.0051392103, 0.012258325, 0.021856459, 0.016553976, 0.034423187, 0.015349126, -0.02900469, -0.022012046, -0.07813832, -0.06827783, -0.013804892, 0.02159908, -0.030041767, -0.037667092, 0.025899448, -0.026575152, -0.030946089, -0.030493023, -0.027164547, -0.025215123, 0.007970601, -0.025659269, 0.004340272, -0.040344246, -0.008397142, -0.04446815, -0.03663552, -0.029848922, 0.009204543},
			{0.057425283, 0.024514921, 0.02978053, 0.0005473455, 0.0011956105, 0.017618462, 0.011164734, -0.019698422, 0.0016074781, -0.00524532, 0.030550089, -0.052368768, -0.1108508, 0.006683763, -0.0073906262, -0.021096377, 0.011774082, 0.021381594, 0.008205836, -0.012811874, -0.018756919, -0.01679102, -0.027692074, -0.000790596, -0.007015943, 0.013810742, -0.034076773, -0.039758585, -0.08784131, -0.034152668, 0.015689217, 0.013156444},
			{0.08863264, -0.034793075, -0.029357977, 0.016468467, 0.0135035, -0.008503469, -0.014447607, -0.012822395, 0.015245284, -0.028672356, -0.017686557, -0.065363154, -0.059855048, -0.025851179, -0.027225759, 0.032638367, 0.009842584, -0.037132457, 0.016335456, 0.024005933, -0.03446557, -0.021952668, 0.023404062, 0.025041968, -0.00035395205, -0.022949107, 0.013067438, 0.019396035, -0.045577124, -0.041948456, -0.019789547, -0.0011843968},
			{0.024643015, 0.0058287797, 0.019439036, 0.03176585, -0.015300394, -0.013703576, -0.031669434, 0.0018631183, -0.0051482893, 0.034129675, 0.031358134, -0.059712563, -0.04198361, 0.03375966, -0.0056493958, 0.034935247, 0.013226087, -0.014646973, 0.017066676, -0.036883898, 0.007854588, -0.03792513, 0.030451652, -0.022275122, -0.036827784, 0.018985178, 0.010604476, -0.0068362732, -0.049351346, 0.02175563, 0.024201266, -0.029874174},
			{0.06069356, -0.004252239, -0.006017354, -0.022180403, -0.025100995, -0.019682428, -0.033283114, -0.01989464, -0.029830089, 0.025651766, -0.006884903, -0.026722288, -0.053698532, -0.0012323819, 0.013856191, -0.02966882, 0.019669646, -0.0135785155, -0.03771718, -0.035469014, -0.02990457, 0.023246035, -0.026381148, -0.011174638, 0.013892573, -0.030008582, -0.040563025, -0.009494126, -0.013919581, 0.009954569, -0.017207911, 0.011771824},
			{0.048275523, -0.013244287, 0.013945083, -0.011637769, -0.0002583406, 0.024744593, -0.025084596, -0.027188435, 0.013526911, 0.012431801, -0.016276613, -0.023158757, -0.020898076, 0.021704674, -0.019548085, -0.015339407, 0.01684927, -0.03764232, 0.011556063, -0.012420454, 0.023541525, -0.017982623, -0.040985897, 0.028604254, -0.030220581, -0.012919681, -0.036100738, -0.014129705, -0.028226936, -0.035858262, 0.012145709, 0.012984659},
			{0.061542936, -0.021343922, -0.020339537, 0.0029848635, -0.03928358, -0.016734408, -0.031570707, -0.027459808, -0.008431255, -0.025007231, -0.0074876137, -0.050670967, -0.0789599, -0.037730552, 0.015035352, 0.031650696, -0.010819465, 0.0208317, -0.008207399, -0.028155053, -0.01882779, -0.01261686, -0.014241705, 0.017427381, -0.032236412, -0.0031071566, -0.023922002, -0.001297101, -0.01021176, 0.029919542, -0.023341661, -0.0074030072},
			{0.04204196, -0.0007235995, -0.03622941, 0.026164053, -0.0020415047, -0.037661366, -0.03549277, -0.02672391, 0.020746337, -0.019573014, -0.014538433, -0.019586306, -0.07354691, 0.03258948, -0.015471568, 0.030178465, 0.0041971286, 0.0052636005, -0.03243878, -0.006547546, 0.016261045, 0.023711346, -0.03129229, -0.012105396, -0.01561751, -0.03571523, -0.004516851, 0.019573517, 0.018727358, -0.004329353, -0.014364796, -0.005700298},
			{-0.011112887, -0.02289389, -0.0332235, 0.020054312, 0.024901336, -0.022949606, -0.02940472, -0.017979901, 0.013324199, -0.010722622, -0.004270599, -0.05121721, -0.040938318, 0.011642136, -0.012752731, 0.015219888, 0.007592022, 0.009705164, 0.007297163, 0.015453536, 0.008463439, 0.029912876, 0.0021564746, -0.030026898, 0.014354659, -0.014449358, -0.014251592, 0.004787487, 0.0030973328, 0.027027493, 0.01957782, -0.0073097046},
			{0.031728234, 0.0004810084, 0.0046761874, -0.038592454, 0.024230083, -0.017131886, 0.003119201, 0.037508734, -0.01201253, 0.032577127, -0.012371655, -0.038404897, -0.026622118, -0.02188406, -0.002717351, 0.024416506, -0.00964967, 0.0012904257, -0.028086822, 0.016470525, -0.035619143, 0.027501049, 0.016730798, 0.019923173, -0.03869652, -0.03284453, -0.040338777, -0.010360404, 0.033738676, -0.02306292, -0.03126522, -0.011604832},
			{0.024185045, -0.018409152, 0.01153885, -0.005490889, 0.02850955, 0.0073960903, -0.027760848, 0.021115415, 0.019824952, 0.01435148, 0.012410142, -0.022709334, -0.037879776, -0.036355346, 0.0042865123, -0.00017399657, 0.024626473, -0.0075025484, -0.022062574, -0.028949613, 0.0012900345, -0.029502708, -0.028870631, 0.029965281, -0.031318136, 0.024891905, -0.015919046, -0.014215527, 0.037247635, 0.00440913, -0.016682576, -0.018997842},
			{0.003493101, -0.0200011, -0.00038779393, -0.03068182, -0.0012043748, 0.016898518, -0.04004309, -0.026044488, -0.0075447992, -0.03565126, 0.020080458, 0.0028072263, -0.0257244, -0.007487232, 0.014169268, 0.0121834725, 0.026580032, -0.012776192, -0.0011274987, -0.034200598, 0.011117317, 0.01699595, 0.028166857, -0.017161218, -0.03106962, -0.013210946, -0.006570775, -0.024265585, -0.0033669635, -0.034363545, 0.017770085, 0.01404836},
			{-0.0040524555, -0.03977979, -0.013512603, -0.006265633, -0.024324523, -0.035919253, 0.009400252, -0.027743084, 0.001974054, -0.036722396, -0.03349329, -0.010629625, -0.0022976098, 0.02025278, -0.012434963, -0.02636582, -0.037630808, -0.017428543, 0.018459195, 0.0067167473, 0.0020493455, -0.013406689, -0.04193709, -0.03605299, -0.03253433, -0.007326269, -0.04351283, -0.00401072, -0.0078089195, 0.030945912, 0.0073271804, -0.031126263},
